solver_type L2R_L2LOSS_SVC_DUAL
nr_class 6
label 1 2 3 4 5 6
nr_feature 37568
bias -1
w
-0.01183299913299482 -3.669538286850557e-05 0.01671627979037571 -0.006667037820569347 -0.004978175545606821 0.0009189351311553434 
-0.01820232549053591 -0.002028369183364945 0.008196781236871474 -0.0004843684300199725 0.00546569542274741 0.006281766050888518 
-0.01817679190116786 0.01116306691722313 0.006955067004469113 -0.01256974410193044 0.004473331814995971 0.004711793259534247 
-0.009926622551373427 0.004041789177776143 -0.002415175911563397 0.01237489859661972 0.003385439635654857 -0.0055455108183285 
-0.01118322284214977 -0.002002619662957442 0.0114393078069506 -0.006821711610910071 -0.008349020909143729 0.01346326902842474 
-0.005557200880718947 -0.007909904322445999 0.01488904254827125 -0.001345377741152141 -0.006125125682472957 0.006623376535005618 
0.004019785128601921 -0.003191991221733884 0.009277811489022117 -0.02195993688943357 -0.005260971640816915 0.0006923366373836233 
-0.008381460088510918 -0.01598886705174296 0.00696153230882675 0.005248000350705357 0.00558744484336568 -0.0002312476625564683 
-0.02228919807669062 -0.008236336239621092 0.01705981124686876 -0.003336675112724159 -0.00561197093873594 0.008789547944152381 
-0.04699002101905175 0.007657497397178414 0.02397458012546564 -0.006953040582945507 -0.005882461569630066 0.02151142193522533 
-0.01522779675571761 0.03283984691432956 -0.01655802292649967 0.00348160096407588 0.0009905481438277671 -0.002108932525903664 
-0.00103851708277342 0.003516546988537672 -0.01718926383142552 0.0141690116269672 -0.008129498924351278 -0.005412262335243841 
-0.0191009574184786 -0.001282777022631661 0.01862525038371576 -0.003675606350182633 -0.023929201100067 0.01458768220992296 
-0.01040558602103921 -0.005228196669898096 0.007531991694988857 -0.008526678470879167 -0.009956666855109257 0.0004686098678206136 
-0.006455223135557293 -0.001069443553249991 0.001946899313596284 -0.009857385815649804 -0.009175207692409149 0.01021451105778239 
-0.009033585364661801 -0.003486805789876764 -0.0113075859212326 0.01607065276258506 -0.01413886980073174 0.009593227485105972 
-0.02195672774507617 -0.009303295439549754 0.005175414462927936 0.01160271226360515 -0.005792828347650143 0.01288514567031879 
-0.04179891014859391 0.01712663635934297 -0.0008396275154423785 0.002999895149485413 -0.008508472883816136 0.01703317812664541 
3.826644548233736e-07 0.003472128843014319 -0.01467911893670128 0.001403608989240336 0.007644327817513594 -0.0009960272434887136 
-0.01820414703195258 -0.001871874113253938 -0.01035817508338202 -0.002715300468576334 0.01323630875461056 0.009846023909249699 
-0.02322491294387332 -0.002879780950389379 0.009221042487981541 0.006285714359322189 -0.00500294566261138 0.004592332050200047 
-0.008549666115311419 -0.01111588062035145 -0.004963231990457655 0.006287173961059715 -0.003561321322774488 0.00660690075759999 
0.0001654776436867192 -0.01227673193147735 -0.001308368886678928 0.01685733995116762 -0.01946139048393242 0.004959547786390169 
-0.006161313339681474 -0.001298036047017518 -0.01659354341937731 0.01111942751471302 -0.005560047575650482 0.006424528010623184 
-0.01659672035209996 0.004709165177766073 -0.001875174001139803 0.003844348468618774 -0.003249064608135334 -2.555741518551335e-05 
0.0006388786461928079 0.01609619284920966 -0.01044078903920724 0.004661935474457983 0.002917575040334833 -0.0009929793850927124 
-0.001495073610810674 -0.01783584566149424 -0.01662741115554181 -0.00641262192512011 -0.001572780303995055 0.02294739298065901 
-0.01146675859209995 0.01107172349865848 -0.01546666452843837 0.003923822200700762 0.04617165812021025 -0.01283325540450976 
-0.01716298798270937 -0.01467628048285396 0.001843264982301595 0.01229824904094606 0.01106780977087992 0.004410498931436881 
0.004560221854973364 0.0006563030968682403 0.001447298674065119 0.01249354429546378 -0.01567140351191429 -0.004940435257869549 
-0.01639414467114975 -0.03011004589341245 0.005484337539549263 -0.009260020695593186 0.01929468431535916 0.01134647213038411 
-0.01100640118544523 -0.005008782402598656 -0.01604477966737498 0.0117702424280101 0.02222369088801813 -0.009341932833043239 
-0.01707560723136595 0.007628352385361827 -0.02486667667445608 0.00790768590281544 0.03250238547185918 -0.008470248384116459 
-0.003525736464242912 -0.004425712508767197 -0.02831147423194304 0.001643622710951561 8.981122681957371e-05 0.03138774233789694 
-0.001678255913044819 0.00433557148949323 -0.02203452889968159 0.002341762356659802 0.009796869119495132 0.003225320074440596 
0.02970534168452811 0.01292258933193369 -0.03281987142909395 0.01577185278397311 0.009007419839619472 -0.01167554284222444 
-0.003221391877245517 -0.005678653935967194 -0.01737876047287237 0.003520838579266836 0.03912176410097904 -0.008908035376087239 
-0.02472487289575904 -0.01371385293106355 0.014466917400689 0.01766040094150463 0.007065481250687681 -0.006363960078977875 
-0.01419580939217418 -0.01752580022504151 0.005898941659641459 0.00215146432404324 0.009589622299469882 0.006335996465383509 
0.008552343172307365 -0.002346599382561433 -0.01363631128275783 0.02056810616013744 0.01133801075084422 -0.01845037888296903 
-0.02402180606214993 -0.000255903666587383 -0.01549868816615907 0.00644013941488122 0.0269823681046529 0.005681493199246222 
0.04362715238822916 0.005810857733476326 -0.02258929995728118 -0.003437874522558921 -0.01173018592761817 -0.008202892700149976 
-0.03985519489095576 0.01097392238349798 -0.0148909345553105 0.009016421246949236 -0.003658315289981879 0.0228703326638058 
0.001139405769313465 0.02604309150965241 -0.008688482861621301 0.003020924544229785 -0.01482594693315148 -0.004536752616433512 
-0.008374892085276059 -0.01179641500289239 -0.01664678623447197 0.01605001303136286 0.003746400397527371 0.009582095265591164 
-0.01641199333869976 0.003918592631349815 -0.007584952507786099 0.02350747319890848 -0.01578065003706738 0.002873001048927871 
-0.008232209030514767 -0.01965958869255811 -0.01368183348448123 0.01738263318146428 0.006578203940270436 0.00490713333981207 
-0.003546204980112271 -0.01236796353893236 -0.02252624061883552 0.01427242818919594 0.03754220729142219 -0.007444361566373342 
-0.007831360066059053 -0.003125892851431321 -0.01040480175491201 0.002816754936415736 0.006895718603326028 0.003117944435835147 
-0.003330142921303303 0.01433278500656513 -0.01234969354749721 -0.004224467284357452 -8.805955974004226e-05 0.004793407537763365 
-0.03893663360138391 0.002707080459253589 0.00676545824467314 -0.005632875350351633 -0.009028152781319418 0.03006765458949641 
-0.01760166317390962 -0.005152745026908765 0.00493881522445103 0.01510810020726558 -0.003625331432971507 0.003119817897013566 
-0.002924156097386093 -0.01441293387032049 -0.01012501738602933 0.006440269622307314 0.00367211745882815 0.004222976678440742 
0.01483814109441468 -0.003397650664069168 -0.005109372118503556 0.008238662684203004 -0.01525718155649575 -0.0109003308425393 
-0.008319877324877885 -0.01668213475388003 0.01772897684613919 -0.02192580571634988 0.003234019684070518 0.001589664522273138 
-0.03102386313793805 -0.01606325534018007 0.01092214825386484 0.007867207550679461 -0.004195924667256736 0.01817961783126429 
-0.01132176570262981 0.005767785603970062 -0.004612530123183332 -0.006945031427406715 0.007716068599099865 0.007363130594952434 
-0.02798681124752582 0.02184448570245131 -0.006080776018434385 0.001363254016877546 0.009653874489485405 0.00772303985817699 
-0.02499364176618669 0.0004545740485899459 0.01990100766989434 -0.01890110207032753 -0.00723193882300358 0.01727879503958864 
-0.01333114495544562 -0.005785262054155148 0.01813328377522029 0.001706789672679701 -0.009993781577569536 0.001339399341901901 
0.003904036338777096 -0.007803210422923076 -0.005265552324057406 -0.003921203040606229 -0.003324245026359861 0.002790015947385594 
0.01518890755707044 0.001320531372042127 0.01535667892902659 -0.006071714980632924 -0.01115345676190016 -0.006215259540179168 
-0.01176462762025433 0.003769163320679418 0.03733943135978333 -0.05060885340952072 -0.005521839773380411 0.005124216100170478 
-0.01348533287948478 -0.00648623187127341 0.009081550183930193 0.01202613397532377 -0.01137866393521925 0.02232761317205359 
-0.02088991528198009 -0.01682733459413302 0.01657152244755985 -0.004079950946946626 4.212126958932212e-05 0.008724005667660869 
-0.01593507517104623 -0.007163105383171914 0.01174890905564312 -0.009023605553821687 0.01650276165073703 0.006319854381057768 
-0.02139505611171203 0.01294627070681795 0.003291848820692579 -0.01247161782619827 -0.001793732399986496 0.01033895054152796 
-0.0247502631486555 0.02186319065878181 -0.01953188528890044 0.01044132902851213 0.02289743361448502 -0.009605050304993309 
-0.005944200618015834 0.0005643677665622 0.0126333410918324 -0.009654820052698259 -0.009480828554981103 0.00439827315990423 
-0.02104861398384987 0.00911009458184602 0.02413349316036463 -0.01416874767393996 -0.01310699325008463 0.00714242613604941 
-0.00622746341316398 0.001346244981865427 0.002835302836428182 -0.007527575221170243 -0.007826699609777703 0.006146539756521316 
-0.01744593859304462 -0.006840424174935744 0.0006011566062674562 -0.00210442825167098 -0.007373886291479337 0.02370705810591647 
-0.03675262057462853 -0.0001941074251104455 0.005261360625615679 -0.004365084075821318 0.003804005892181146 0.01041840778532345 
-0.02397886968491495 -0.02744758899942446 0.01958591555624514 0.001513770317902265 0.002220045108208811 0.02498980221487335 
-0.01523558094067274 -0.005430310496142697 -0.008748725915503415 0.01631333290084159 0.006710129151796767 0.00789896926313984 
-0.001315292964416959 0.01413643396449165 -0.02675313237551438 0.009857338495659403 0.0262424122447934 -0.02328548550349252 
-0.01433353692777852 0.004777456518732707 0.01771153676032431 -0.01179903043815411 -0.03356607361843657 0.0140686733761863 
-0.02078513582089709 -0.0236556129512762 0.01468814831037277 -0.0002997367736540027 -0.0255987388716156 0.0314676009931297 
-0.008713759888759234 -0.0151261098190076 -0.007672062757304357 0.00623800334459229 -0.01152913024037281 0.01731571873386843 
-0.006873844274264101 0.009801778845055868 -0.02063472812281728 0.01161719732079974 -0.009129825953860572 0.003553793793271766 
-0.02080029712347773 -0.01684062444410754 0.00774983901656284 0.003757068326707145 0.000231318838954187 0.01629769841112997 
-0.01042868455330595 -0.01875954446514313 0.01810933911649004 0.01401771522563678 -0.0301306171146953 0.01729524575300853 
0.009753223036789032 -0.01013713494152274 -0.02447998196470093 0.00386004068143555 0.02161133360584974 0.0009549675711304595 
0.0162562769854154 0.001213243348231464 -0.03057377685272478 -0.008364636417412594 0.04161919220283602 -0.02219169167044582 
-0.01834324770934133 -0.000487942923352989 0.0101405300902619 8.358598928298478e-05 -0.02049128027984096 0.01278527079333077 
-0.03376138211863542 -0.0182068909963951 0.007581208298889973 0.006332806435810348 -0.01274670210199631 0.03037146302372884 
-0.0006096378673111069 0.006500068546697144 -0.01417198969593 -0.007350570917480262 -0.002144376926732492 0.003397903616602853 
-0.006367614960225945 0.0001614415218226749 -0.02191158660689542 0.002093000172601046 0.004932598544016296 -0.004029559330988271 
0.008125948239596959 -0.007378514842316176 -0.0001203808008058105 0.0004677790399441167 -0.01049612355851898 0.0004521605124265349 
-0.02382662165863603 -0.007070114426750367 -0.01326111257124079 0.01756591095560986 -0.001725325750613462 0.02902135350491552 
0.0270601962800699 -0.03510193473776071 -0.02040331423665253 -0.009984885933245927 0.02413095891722289 0.01049159526607913 
0.02205075757709009 0.01975325189254642 -0.03557097893606107 -0.01057405411420178 0.005504582143875242 0.01223667812793811 
-0.01041628308801782 -0.0146859163684323 0.01114373401609535 0.0001917504395928588 0.01188048508269152 -0.003091113541406335 
-0.02018885227263592 -0.01915626842513034 -0.01647935047306075 0.01856563136577407 0.02051548638154097 0.004513848457973619 
-0.01208831010153007 0.009849475909262842 -0.01714292895236058 -0.02458262576844802 0.02974597461419421 -0.00826032438872488 
-0.004945055106032046 0.004700755474926079 -0.01110043882767493 -0.006643291437136021 0.009416396554903231 0.002144161939541639 
-0.01501168264038875 0.008140146858285591 -0.01290424943432211 -0.00907204752352871 0.004960443074438734 0.02405436867795309 
0.003653582983587966 -0.02379845873963482 -0.0235631987577425 0.006056831701058737 0.001251834884237433 0.03476514880468584 
0.002866999686478004 -0.03091638297738093 -0.02551103437856887 0.02270042912920091 0.007362564967743875 0.02261359408387644 
0.04092116753770381 -0.001366755744180571 -0.008957470076734792 -0.009871422158853685 -0.02139536542636012 0.002744834303339936 
0.001716396373005387 -0.01168649183607897 -0.01870118202810571 -0.003853051827033892 0.03304303140750042 0.005384076630290349 
-0.0212374005957005 0.01230237450713453 -0.02001364445698835 -0.008865061680150959 0.05345511873671484 -0.01887403892078203 
0.006934035568564259 -0.01886376468867345 -0.01975971929943001 0.00593031430784354 0.02855941460485142 -0.01524553954083599 
0.0005775234402612513 0.0001902263743949667 0.002714258107248545 -0.0009803516331558842 0.003508767912345918 -0.007086022430502144 
-0.001217918271662366 0.01463246513323107 -0.02610064920949796 -0.01039821853571265 0.03927906442859364 -0.01272427845000516 
0.005120955097933332 -0.02684482768102633 -0.04115278719320953 0.0250935577436938 0.03686030328858776 0.002183577473451326 
-0.01144955509171926 -0.02706333376280508 -0.00893822300980027 0.01366857861702623 -0.01773901967630978 0.03142199478140885 
0.0009460293729805624 -0.00594172473796074 -0.008721610019183612 0.01291492177113887 -0.00541896442707948 0.005936119629174755 
-0.01152654097997272 0.01462173815224799 -0.02427101826762482 0.003331167083509017 0.006629076852260444 0.001404954139286685 
0.01634903571194374 -0.003584077682680378 -0.01680799973987686 -0.002211572323299431 0.01327896027745074 -0.01537322578090689 
-0.001525627224154659 -0.02370227295461153 0.00320740281861713 -0.003703680898338291 0.003334640000302007 0.0003608631564617268 
0.01770460154025488 -0.008602121731602408 -0.02089486992845899 0.007530380953754645 -0.01371475579697313 0.01776471916702941 
-0.005069931530921641 0.003928801142788072 -0.0261345763346758 -0.004266687087903943 0.04519131959422908 -0.02774451191809796 
0.01112273981944345 -0.009204605924404452 -0.02523501395566078 0.02188847149180001 0.005926189860878037 -0.0008261439423693495 
-0.03330415919731203 -0.02284522365922671 0.02685200657573843 -0.01041218613736548 -0.01741515364449423 0.02619142629849741 
-0.02373199075386667 -0.006237888770208948 0.007894986498417966 0.01693621408170621 -0.01761724269571759 0.01091761249886355 
-0.007437235177621755 0.01298787096673129 -0.02320921204185965 0.004258705932555314 -0.01010125246063231 0.004486669165277694 
-0.01405432022831837 0.009638557580653935 -0.02647853747282385 0.02130125548750397 -0.01267451691131036 0.004971221122100317 
-0.02744193013399054 -0.01037273706775773 0.02410533988878815 -0.02058372951572389 -0.005323753508952983 0.01978537266863082 
0.006673201216635749 -0.01037054216166141 -0.003233135939846081 0.004349180707288243 -0.01473936210986849 0.01073117721296277 
-0.0222490150681007 0.02109432242974264 -0.02115728476682156 -0.007802510374835279 0.02192898896229693 -0.003324718571829367 
-0.01437978420178501 0.01195316786025696 -0.006089023663128857 0.003426296363581717 -0.001148512348702683 0.0077495144590341 
-0.02556215057736868 -0.01531536906829632 0.03263918337912403 -0.03289085798538387 -0.004537026758762289 0.01937893697066541 
-0.03018061685986801 0.01033229949062908 0.01705128188250579 -0.006460300583668639 -0.004933480159093439 0.01024907184005144 
0.001188806720642043 -0.01016603489325102 -0.009244506759584088 -0.005327693087497557 0.0003433925915439613 0.001270116664077849 
-0.0113148345766878 -0.01117916516595865 -0.004795378025957478 0.01269595821510898 -0.01256420851569689 0.02039976482796792 
-0.02823656985228025 -0.005563253592711538 0.02819452242574504 -0.02804780220542661 -0.01140422578635466 0.02804928037588905 
-0.008069851340527012 -0.003002977044685359 0.01132563887735205 0.004839139290248455 -0.02009696939280134 0.008839508790279107 
-0.02669529711402462 0.009384366787304158 0.005394216800923753 -0.009414347736622454 0.01434075238358153 -0.0002268011309628933 
-0.02915535718387969 -0.003317829818871847 0.0111433417917903 -0.005350337294138251 -0.001177538198138247 0.01721193657563509 
-0.005943662518490041 -0.0001863077816452487 -0.01249288474696394 0.01453843350132734 9.244615104557449e-05 -0.001411991932302939 
-0.02168770635075884 0.02696321355992933 -0.02338194199255413 -0.004934272987509233 0.0240505134031229 -0.0192637562220098 
0.002368089044544483 0.001047312625539407 -0.002592203767032124 0.001000625691383752 -0.002034097486606108 -0.002566995486082758 
-0.02756083294172603 0.009960319596467464 0.01059280697102516 0.004052317380002748 0.001468259706752664 0.014085822348211 
-0.008251835174997344 0.006725318502724861 -0.01085200618013804 0.001763464112307961 -0.006798505799972146 0.007591919947652221 
0.00852228190147291 -0.0119978480586592 -0.001195581051022923 -0.009109444719808974 -0.004853110684440788 0.01070413224581078 
-0.0110322473455739 0.01742517673973033 -0.01003767310126787 0.004336791063042616 0.003635825285019836 -0.01536562074300999 
-0.0260141258775967 -0.04554145891360681 0.003155528541403488 0.006618923393174135 0.0134273140591564 0.02896904727536733 
0.01367262986879371 -0.01831758083372711 0.0003811025768879312 0.008272534756546223 -0.00330560079531204 -0.001809778190976616 
0.0004144116694262383 0.0118869756461579 -0.0198268335603268 -0.00210903502778598 0.01397905976295237 -0.01007615328974988 
0.007824604726822693 0.01497796165303215 -0.0049477520638324 -0.004437733988300757 -0.0226858152223888 -0.008997782999464746 
-0.02085386072103502 -5.230540219468288e-05 0.01554779616894139 8.220655801240774e-05 -0.003528165828211908 0.01280957119570415 
-0.005696620777325351 -0.01626208874078506 -0.02087753101313033 0.02276956919131179 -0.007115352922504682 0.008962385086749035 
0.005824790462219801 0.02008016286250075 -0.02764574808011319 -0.0003590827263895661 -0.000595262779518212 -0.00705126094608289 
-0.009441919898891595 -0.005918983519204607 0.008729859423629006 0.004871389608285928 0.01467911634878923 -0.02249206496988205 
0.002467214094068904 -0.047483866922538 0.02341253066278683 0.002294860641220552 -0.008203064348039898 0.007140841132396009 
0.03329413920567934 -0.01105512097619921 -0.01761468338941016 -0.002707906225915569 0.0004607016634219556 -0.0001491753258191597 
-0.01521672120937639 0.01511213573783206 -0.040687356348097 -0.0005259484011293242 0.03438009082684153 0.00991178320405192 
0.0009396658529777431 -0.003367946878924647 0.01483446288610852 -0.008440311174593136 -0.001632182981879573 0.002600262642358213 
0.01774385216130414 -0.02058539907643694 -0.01660704947806802 0.01499848074158537 -0.01253783584314521 -0.003321935019437462 
-0.01256047995243392 -0.003938413129259619 -0.01945294040595073 0.004951038070880042 -0.007471666760022174 0.02354459117496353 
-0.02299057033455907 0.02850670605781067 -0.03273954813257454 -0.01514569662731161 0.03633955698610564 -0.01112409893349005 
-0.01509980430920241 -0.001970449036749145 -0.006045810615555839 0.0005967060678075759 0.0227357400579053 -0.001702080596910811 
0.001325349693323757 -0.03824119004372056 0.005156059261601072 -0.004611415798576341 2.195002335801807e-05 0.01287789360412083 
0.006405593371034303 -0.02578265458216788 -0.02735960635922857 0.0262408284403051 -0.0008387721134563412 0.004512614513775429 
-0.004120114129175595 0.01280685276657361 -0.03494152672246501 -0.014434021258721 0.004040897907253233 0.02974495472737121 
-0.009013668545896424 -0.02987462044779548 0.01494188122776543 -0.006814214625002502 -0.01450773039471502 0.02977415264926071 
0.02726123003132544 -0.03256397609660633 -0.02121106033219958 0.01656321685744 -0.02032094338844989 -0.003827049050485296 
0.02379796882561475 -0.001909794423705963 -0.02411764035324364 0.007316574491270007 0.01843305642762939 -0.0225797056506363 
-0.01277564858742565 0.009552938148689762 -0.03393603396647765 0.01673006359725257 0.04952085180421198 -0.02529666600972147 
-0.007755188991673984 -0.0007760957242292989 -0.01401282349611789 -0.0004551822530576872 0.001600507295184235 0.01281384759948468 
-0.004649865874237338 -0.02398209041178661 -0.02459322862568167 0.004726305273560434 -0.005381780831539588 0.02848505125375601 
0.00169471749862002 -0.03721769432880578 -0.02073863423800149 0.01429300467633475 -0.003200803284612613 0.03191490985537493 
-0.003758138386232495 0.001221852179804926 -0.01857260414690519 -0.008986155710878576 0.0260186937970939 -0.001992921629278541 
0.0008947377917540788 -0.007829721215046489 -0.02082662839939227 -0.003753503979638299 0.01954903951039474 0.001290775616251274 
0.03002803544229626 0.02063092729537941 -0.02616100249613903 0.005967537999599685 -0.003287737228230309 -0.02754825679337902 
0.04584672002442015 -0.02101286989919864 -0.001954621857132198 -0.001594846494304882 -0.01574093887437581 -0.02164367570243906 
0.007155917426723932 -0.006176747364282923 0.003611953432246309 -0.005586861473416796 -0.0114737868124059 0.004998391406188424 
-0.01823105990310132 0.01856307085989299 -0.03135114768732433 -0.009707045479526484 0.007378218454907162 0.01813411155992867 
0.01774319383176337 -0.01544607670510015 -0.02549513917781918 0.007879139253048565 -0.00253877339828867 0.01564677272387487 
0.02137575934820866 -0.04872776047525351 0.02365748920154412 -0.01415771269910448 -0.007837790380619407 -0.0005360193549330569 
-0.01967951691372144 0.00338063983249065 0.002966642441185505 0.007736136495942126 0.01283751061470845 -0.01054865585741143 
-0.02506533311984714 0.02512468047716392 -0.03031578987328032 -0.005515417023210841 0.05806538857249563 -0.02659846065272127 
0.01030224379873724 -0.006701815045992113 -0.03125329556339094 0.03295210666477285 0.01888971817551384 -0.01682633845469884 
0.02371679580095683 -0.02085095939710727 0.002819605430650818 -0.02221443497611536 -0.02409304597788969 0.008948752713982509 
0.006820378313286787 -0.0177555335431285 -0.009123081017637686 -0.008677250898106207 -0.0003265494926773341 0.02477152881990681 
-0.03696762160500915 0.01625794766603311 -0.01852551652969983 -0.009206720439733312 0.02687627049619804 0.008512559274723564 
0.01706735781439513 -0.02254793984414092 -0.01250018118005542 0.0209940026346587 -0.004800111744736337 -0.0003789579221660191 
-0.005994687161979732 -0.04209608464315048 0.01710355373552098 -0.01547026382972113 -0.002146734167332437 0.008189793807674033 
-0.01754810296821033 0.005348185426987596 -0.0004647094528490667 0.01295821969284597 -0.004520964495382245 -0.005256779247194671 
-0.01755353038948389 0.02526133963179534 -0.02353819795717708 -0.01903570520933402 0.02667716403595618 0.0006511647730339415 
0.003460470122526733 -0.005261645506941938 -0.03091832336605388 0.02972382342155326 -0.014303162321501 0.01088205236338675 
0.01557609817636088 -0.01207087880861149 0.008449152769766547 -0.009990071743730282 -0.01453505896873672 -0.003184067450340899 
0.02064403230311652 -0.001890320789313929 -0.003934207433189226 0.0008649393753422758 0.008058070744217709 -0.02136825588189303 
0.007917276607290269 0.00883393678308598 -0.02862172067692838 -0.0129509977961564 0.004506971332569719 -0.00583131157765361 
0.005861269646236462 0.001814255933778739 -0.008578740734936407 0.01787880212814285 -0.004675101974319912 -0.01432992989212244 
-0.02081472764055544 -0.02470325562292884 0.01943053222569333 -0.02132624543343104 0.005264872941825131 0.02226499437123202 
-0.01545855416947631 0.02542358286926134 0.003598709553245368 -0.00658684750747751 0.003492007225156955 -0.01295685539693555 
0.009191054207647568 -0.01128428957607734 -0.01938540238934051 0.003354144698126141 -0.0007032698838472205 0.003979384755958129 
-0.01306270211917373 0.01796921963757636 -0.0171006270548967 0.02235274713823691 -0.007812587462547062 0.002516202093151291 
-0.01190963841685175 0.004819562426411387 0.02259608234792471 -0.01662635874275601 -0.003515523350976721 0.007157300765549188 
-0.003981076803832158 0.01290119760485772 0.005449179744589947 -0.00184122768082478 -0.008506103965360376 -0.001130874613686265 
-0.01485660132391659 0.005428627609672727 -0.00631354489085565 -0.008780681433424411 -0.003248771929191143 0.01123177843376754 
-0.01653698405250222 0.00543200691725284 -0.004687605166830976 0.01564745048381646 0.01136430592115706 -0.005094135977141197 
-0.009892467691326906 0.01038727064111483 -0.004270611008773232 0.0001755743910649487 -0.00136009997529668 0.002578731897055989 
-0.02359123470021125 0.04218766635280314 -0.02758721651563798 -0.003448031478510679 0.004711085495573684 -0.003148327907731677 
0.01721913803308207 0.00912056209769669 -0.008276644717045633 -0.006902549136610982 -0.002892153551415301 -0.01744759137297396 
-0.002914714871977777 0.00487626462023425 -0.00891096386679973 0.0207233977491278 0.005700192704564934 -0.005629031805849416 
-0.009008104651711498 -0.0007610522395777975 -0.01963329379581099 0.01828719556815348 -0.004343867487320172 0.002788444550281954 
0.02189464329745755 -0.01031964172688886 -0.002600125039533832 -0.01590611075701964 0.004268958298376195 0.00731929470198849 
0.005327707152615324 0.03492453613069656 -0.02505951207655929 -0.007335236694696526 -0.008557207729804436 -0.01756936053544744 
-0.02126910874363779 -0.01293116400579459 -0.003461838503828444 0.001955213872621956 0.01507892546911071 0.003710932173249306 
-0.0030952339538995 0.0009074936040930682 9.036757216906378e-05 -0.005536599439621136 0.001469509237441054 0.0001715686134274286 
0.04806278549778199 -0.006819054045280783 -0.01030132129229945 -0.0001142434353243186 -0.04227911105304494 -0.007740548537125211 
0.00999703939148051 0.0001677062400808688 -0.01594479333271032 0.01000372836552981 -0.009520339353709578 -0.01304147539145718 
-0.01107022371617968 -0.00955136503343813 -0.0182082333001418 0.03615036671704069 0.02147227491379275 -0.00420818550670268 
-0.01889382487320451 -0.004073845328614802 -0.02091835450520266 0.008955114922348633 0.008089103330671034 0.01127189994879762 
-0.009686275459156041 0.01516193161011909 -0.02768191889992149 -0.004615380943363896 0.01016379219158949 0.006588721401985364 
0.01088649116315961 0.006693729963633921 -0.007543406932460629 -0.003295996201389261 -0.0005827058267981941 -0.02113433704857771 
0.006506945811718312 -0.01665945709212442 -0.005602031333682603 0.001422301317462136 -0.005049266701837413 -0.00152916811649151 
-0.01515058265260811 -0.005159583143779579 -0.01293853889215007 0.02175003445887672 0.001374374309984788 0.002616693205902744 
-0.01395983143607304 0.0060033352743911 -0.03891676727897796 0.009017770751195024 0.018406404792338 0.01818465432055966 
-0.01960680174527698 0.01804792220625274 -0.005599784490112086 -0.01144330886207132 -0.007560128831781902 0.02231520259318586 
-0.009854235288450667 -0.009997846621240576 -0.0001095404826780801 0.00174635678943348 -0.0006911584305488794 0.001900129329616658 
-0.003091097494679751 0.004851565845635347 -0.0215746116791769 0.01413172327669896 0.00545274770179142 -0.007263938105924051 
-0.003170508015061175 -0.006172016993828902 -0.02843372540006713 0.02715198180591321 0.01126765389013982 -0.01404838085803968 
-0.0013549903931588 -0.005659988346411588 0.006394445414048986 -0.01361933976197696 0.004209657938109047 -0.01003310669058847 
-0.006866142759665481 -0.02027902082070067 0.02456273502549774 -0.03657194874398048 0.0243177362958669 -0.0102966277376161 
-0.005272536697542548 0.02552895463537082 -0.03197793342694083 -0.005302089590936127 0.01764882165399229 -0.01958342225366545 
0.02891384899753231 0.006378604158717471 -0.0406674574838729 0.007414119019925693 0.00774071635404595 -0.00205131672051081 
-0.01096588492895012 -0.02259473090501971 0.01138904476123612 -0.001082449685226395 -0.03637662234896103 0.04461396607238013 
-0.001484243283686033 -0.02292752132111845 -0.01053535378535538 -0.0002892973786248496 -0.01154996285149452 0.01646901965721715 
-0.0184938115477117 0.009087177348528097 -0.02881902414535492 0.04570959330091023 -0.0130675882276545 -0.01121468273517797 
-0.02375684260974686 0.01280565780803563 -0.02625393623529455 0.01089847089176478 0.02182354225993026 -0.009724986100890488 
0.0137545533643255 0.006512540383184551 -0.01297786934294188 0.01803145469411686 -0.01651729642330579 -0.0128191353519294 
-0.01772892856804445 0.03521282103619058 -0.02108748635970868 -0.01837515514059258 0.03217361798389166 -0.01885790837841937 
-0.02683061092411421 0.01288969515492137 0.004319099345859535 -0.02727007146941306 0.03170249674320017 -0.01139607987184591 
0.02390621362322176 -0.008102263184122604 -0.02354260935286036 0.004242298405779724 0.004227170567633257 -0.00788683285981588 
-0.01594861032235379 -0.01005413679368825 -0.009949707678073873 0.0008453483952143302 0.002907068529438317 0.01871163176246794 
-0.02262178591436214 0.002655172789946285 -0.04645221642041127 0.04586352244025103 0.0003351999323308755 -0.0022381908218338 
-0.0150856960690671 -0.01025162217328152 -0.00937138130899288 0.003430248027569942 -0.008240015452040825 0.02125351013471849 
-0.004241571130128731 -0.0262886003858407 0.01009675749537883 -0.005356731074801005 -0.03571736630349896 0.03291300877556921 
-0.01690217829944253 0.0178299716025468 -0.0335525241518903 0.01218287018833196 0.01984297205958524 0.01006347909906602 
-0.002070253614577394 0.01059698709303514 -0.02963033908986144 0.003776321268142683 0.02666986895444472 -0.02100152416675085 
0.00684208280881396 -0.01760027691157756 0.01946629792363588 -0.03287960172044695 0.0159214715117286 -0.01764989132842003 
0.004267720856080987 -0.003856935177538874 0.01179276806750187 -0.01965510830146439 -0.01046145057493107 -0.01363808117058555 
-0.02226321326405745 0.02604245806559193 -0.02125041490173951 0.004480693237298373 0.02302028975965609 -0.007394660839060078 
-0.009473974596882179 -0.01104307392379231 -0.03065451504080603 0.04990747449185457 -0.004973685698210588 -0.01048480635166138 
-0.01338871627958551 -0.01034213563571365 -0.003471866992552141 0.002343889182330906 -0.007937849099941358 0.01720546767927291 
0.01347034795656607 -0.008959777309599197 -0.01602988091990806 -0.01516439059172919 -0.02668419944292272 0.04402672458060189 
-0.00204665408490376 0.01178602460593021 -0.0251241549938717 -0.01445214012514773 0.02165161898877553 0.009481101241893502 
0.004237344698896477 -0.01375359935509457 0.0005524206904344941 -0.005162459577215014 -0.001274870793405312 -0.005718413249039523 
0.0116086152765875 -0.02628834066933453 -0.005739567672138733 0.003232337088102689 0.00506855733094057 -0.005320793885443 
0.01255173507369674 0.01875676141355912 -0.01068056781748412 -0.007134322818301782 -0.0233073273689634 -0.01770201634215849 
-0.01571310444845103 0.02554278648600141 -0.01951280810439036 -0.007189555317573824 -0.005942716031743069 0.005813591877546181 
-0.01142814844265025 0.01530726194779426 -0.009749288017051296 0.01447233743223343 0.00790397659811176 -0.005591228306280286 
-0.007283933687537072 -0.01243904346220957 -0.00441929036755951 0.02213673843116885 -0.005985667356680136 0.001684198790317316 
-0.03942401710862983 0.01171887664231295 -0.01104475723321566 0.004756899095329995 0.01055137624597968 0.02105802924634794 
0.02269545026709602 0.0142224763359113 -0.0192323794455978 -0.00675487270032289 -0.0438505709605591 0.001157736409231588 
0.01341285995487426 0.01794748316920079 -0.009919958460918924 0.007262532502845735 -0.02295092257897616 -0.004121954196636799 
-0.007902905985748117 -0.003435681843439315 0.002674680417824256 0.002452396269374171 -0.006719964481297136 0.005993452647871728 
-0.008919865544618683 0.02212558709938387 -0.009190856371467007 0.001760625712957781 -0.02017657081336102 -0.004882541799601618 
-0.01070009261586003 -0.01095969173622947 -0.02086015927786199 0.003426720764861243 0.01781552016071801 0.00953962630690347 
-0.02766568409491264 0.01426191252233075 -0.01265568792783972 0.02138557755203863 0.005544544355866429 0.0007951861585481884 
-0.01622162949629392 0.005789214256109202 -0.007499210082400138 0.01028636554399758 0.01519076940387276 -0.002735542216454458 
0.02028341622528191 0.02036458918318325 -0.01854062460761692 -0.005393338213720287 -0.009396867932930793 -0.01460245863479195 
-0.02066829504854147 0.01022910169872948 -0.002710212566259182 -0.01416232527695972 -0.001315737608884396 0.01388591877065496 
0.01026653335488253 0.01305782534562083 -0.02700209612697846 0.02545246543100091 -0.001748549374195466 -0.01795281141091553 
0.01394350774635831 0.003774281192464274 -0.0001183299744430625 -0.001463358780059763 -0.01418465534093626 0.001654661889223156 
0.005241681341881519 0.02463704157424984 -0.02174862334124236 -0.007714869119289427 0.007451318617496293 -0.003909417916394231 
0.02298022829148744 0.02204467563281336 -0.01762612619153234 -0.0208767158163502 -0.02083316980259284 -0.02145059642310865 
-0.01841242697100448 -0.002024439427442061 -0.004469044982186348 0.01687825325811448 0.005038580890492105 0.004559423863553255 
-0.02121482061710217 -0.003587201393414568 -0.007949409074323359 0.004034183028483738 -0.001281079194675885 0.01074420119544794 
-0.003993336005645836 -0.01668049780852639 -0.008824288689693587 -0.006169548912105124 0.02322835850268804 0.02859009768176697 
0.005669105416465089 0.05152867289500471 -0.02237620510679954 -0.03059980001151982 -0.01052152133452345 -0.006869690286076589 
0.007771164575893157 0.004619436495692293 -0.03076667709353135 0.03147554417552745 -0.009528407455765305 -0.01621183697969918 
0.02726452050668577 0.008003370874667981 -0.01301417007846981 -0.003555932376535176 -0.004192824789893379 -0.01364683796050794 
0.002562705431114597 0.002880040711818503 -0.02519943859888836 0.0009594064002117341 -0.01911969201710316 0.02712869091408056 
0.007415283171398328 0.01349814996379768 -0.01447175306943601 -0.008884459919018994 -0.02147639887947492 0.0120964874862851 
-0.003059067232887858 -0.01293159400613781 -0.0179204604445403 0.04037720302923721 -0.009755100321557457 -0.002431941105254862 
-0.01796419961482973 0.0005472564879164099 -0.02239317615184486 0.02602241854743013 -0.01904812964273737 0.009732653955559029 
0.03060564759475485 -0.002983929893759852 -0.0185757825220837 -0.01965955225350222 0.007045877410884758 -0.005206334731810388 
0.01573197567778103 2.290231922839215e-05 -0.007512878841378547 -0.009201608947725735 0.0009835952762305763 -0.01456688467335421 
-0.01503746914523986 0.01942571220309117 -0.01127761530623329 -0.007236725898301505 0.0004815579672509364 -0.0005795849540451469 
-0.007482579690569675 0.02152005648128335 -0.02341324228350488 0.005025951501934531 -0.009593485922174528 0.00905857029466282 
-0.02537675065078315 0.004866409532400226 -0.0238300320075971 -0.01424556286038527 0.0291994028142089 0.01580139573334319 
0.01546200607320169 0.006684094307536415 -0.01859584078163281 -0.02342707980763244 -0.01188509731988052 0.01853691179861257 
-0.0179400526135844 -0.01005135288396654 -0.026460111824743 0.0345527161408631 -0.003197040885372411 0.006223606308083911 
-0.01182812475261293 -0.02649262025280921 -0.007248415823566671 0.03149589486007524 -0.0173705325960854 0.003787527103061691 
0.03735700357775471 -0.0219158473773948 -0.01602911872508746 0.005458716034359853 -0.007416739258036128 -0.02311781450581784 
-0.02654998532114432 0.002534162312825979 -0.01701528704415558 -0.01180755204452111 0.03581253978807532 0.001093681950549719 
-0.04080706015003815 0.04182617880995302 -0.01423520136315731 -0.005908959373131831 -0.0004005717874329982 0.01023931211319151 
0.01824207263473798 0.01629357456410193 -0.01483231452380437 0.0118472801244427 -0.03137949574160894 -0.005684660537046502 
-0.002733646893260781 0.0141428270215719 -0.02561993587905544 -0.0127008708044653 -0.01642766987990394 0.03158440063886727 
-0.03408806086483622 0.009537952731098776 -0.01271224076538211 -0.01245585045326027 0.0519890408278781 0.006446670847809546 
-0.005490694275644073 -0.02775400237150094 -0.009326575747963896 0.02315066997359027 0.002180804602590803 0.002510938025210912 
0.003057022736033835 -0.01164212008074428 -0.02830003613568004 0.04042722386665085 -0.007861693127726242 -0.01788825024377083 
0.02521124503690126 -0.01942589206518004 -0.004718452280974215 0.001281969796998158 -0.01802916935181467 -0.00855339266597923 
-0.03864954986044439 0.0356274350657695 -0.01231095845222523 -0.004457145896579699 -0.007462110567582145 0.0221360335507429 
-0.01675710032031955 0.01519693623661647 -0.007314128163865487 0.007635433991988017 -0.02035459806110035 0.003169890116611692 
-0.0195343424924415 0.02002902059053666 -0.009569907097761355 -0.0109885028566451 -0.01514771093155911 0.01385591735138724 
-0.006244105388719196 0.005383192928001902 -0.02284027276832057 -0.01363974015911274 0.04146146556536981 -0.0117327671469322 
-0.0005297185787760483 -0.004439876287147251 -0.003880597955712515 0.001878535142350551 -0.004342938824177149 -0.003763593393566746 
-0.01771086730269848 -0.01325899697316498 -0.02375186461993954 0.03377585088793316 -0.003221976398392429 -0.008826727039124255 
-0.01724032661280923 -0.003677367314350471 -0.005315631445514256 0.01287369023914576 0.001121957889694998 0.003769625522054156 
-0.003275148243479728 0.008435012325593728 -0.006897941908364973 -0.02085902396242929 0.01718662284907944 -0.001266675713834794 
-0.01946939964406727 -0.002869836275734529 -0.02355010263004136 0.003194965054982852 0.006890830740780607 0.0255284007889704 
-0.01602687529142357 0.01983285036282412 0.001667207540337941 -0.009825259493991151 -0.01516449257195082 0.006867416119385255 
-0.02373269376018259 0.02088983711204064 -0.01413834158609312 -0.003393979058392167 -0.0004087372112114905 0.003693598369251038 
0.008457570491000054 0.003240054767546433 -0.01089387181046463 -0.01819116273957783 0.01636733685015384 -0.00932661802708902 
0.02398213131756118 -0.01699899423821632 -0.01162936113123463 0.002209421767215993 -0.002395960847015074 -0.01665472369772221 
-0.0193952219222556 -0.00948572813965992 -0.02442804080603186 0.03074026702234175 -0.005684010418256921 0.003522016809344671 
-0.00365422444777881 -0.006254917101570275 -0.01231146968280029 0.01792522004175595 0.003070214458674074 -0.01377278401616248 
-0.02298082048652448 0.009059875563067234 -0.01530351487896634 -0.01538279748237055 0.04330871992723895 0.008599569312374386 
0.02401124819989565 0.008800320911675461 -0.02390975202714051 -0.02685579038350237 0.007094778262426531 0.0028555354406625 
0.01156130952304721 0.02167561607005036 -0.0002045421457722336 -0.02446669709848665 -0.01348722338132753 0.004272076171125422 
-0.02188356986029915 0.009031157952715805 -0.02715775943441026 0.0269607234209696 -0.01508929170038376 0.007082580153944404 
-0.01711062749270741 0.03627097096122469 -0.01302207655045085 -0.02191738532968195 -0.007283698947163563 0.00823788522424263 
0.02847665620214086 -0.003107302505790735 -0.009450194069065913 -0.02259108330445314 -0.01347197886979704 -0.0109755625354475 
-0.01191433475755046 0.0007858541267096863 -0.01766469675654234 0.02749829453361562 -0.01298807422700225 -0.01037917045863649 
0.002846152446439978 -0.004205157350546752 -0.01129688066099383 0.02132006663229491 0.002517442051748638 -0.01244978134215533 
-0.01009372331202382 0.004132882683674836 -0.01930029611470669 -0.01467534351247904 0.0110383467624279 0.02032864407733536 
0.009370693624411086 0.01334031377536503 -0.01891702923299469 -0.01127217147301016 -0.005603753767812428 0.007437035464516892 
0.04151804854948665 0.01398878287743951 -0.01845525514005205 -0.003482091694058159 -0.02578230071622807 -0.007744290681891376 
0.006916153912351917 -0.003219724335020014 -0.02825201268798143 0.03761264018974463 -0.009973672297956197 -0.01743972500712869 
-0.009862016346533498 0.03130723179854109 -0.02182517973840939 -0.001427892502795345 -0.002304604216821798 0.004184370686183265 
0.02631908564341675 -0.01389234913990317 -0.01061313899035123 -0.02500441558296563 -0.01187500391234783 0.01080181989232188 
-0.01800006924127852 0.009096597302985534 -0.0116605334183063 0.0313443161735736 -0.01848887031618055 -0.0006778013020803797 
0.005374529537080061 0.0005048468677399533 -0.00706241202194823 0.009768771219797521 -0.01751149369546407 -0.001770479752025576 
0.01698383636803816 0.01257384878821611 -0.02320121096244581 -0.01350050313589287 -0.001283554163861857 0.0002893208963370094 
0.002212209038161543 -0.003162018202333095 0.001029545132813633 -0.02024257323459024 -0.01133539880722719 0.01252945055986769 
-0.0111310998656355 0.01806385916329383 -0.004711137881010209 0.006666390727068714 -0.008917017498605097 -0.003941777138039076 
0.01989187186180438 -0.005216276333001552 -0.01229727928784073 0.004690198466720419 -0.008154393805662874 0.0020047166482545 
0.02555535433516385 0.01779168008852615 -0.01067346826706037 -0.01738536281986728 0.003533172485359223 -0.008372719344059351 
-0.01199735124436458 0.0212791497106828 -0.02384540454164784 -0.01252581745126892 -0.004354255100849799 0.00646041524687296 
0.007131969403682395 -0.01022355485194399 0.006718296060237386 -0.009077499645807679 0.006952986901979645 -0.002730057561549619 
-0.01002163986682615 -0.005238494505144486 -0.009891551506159661 0.01105926680762643 -0.004781807907604222 0.006849936997778513 
0.0225029700338153 -0.005237043147772754 -0.004873718940438495 -0.01468957975785171 -0.00171666733245533 0.003728200039747558 
0.01284562241397044 0.03184076872549456 -0.0149616289408081 -0.01896027017216022 -0.01633241329921926 0.0004940287658868419 
0.00901605341528049 -0.01721206210344715 -0.01690208529777554 0.02249505798452373 -0.009394954196949292 -0.004640213814587073 
-0.003183656483975737 -0.004770476274886897 -0.01188929884031088 0.01620391793405824 -0.005993963128020074 0.0009674870533731604 
0.007117957376202891 -0.003169313887033147 -0.007592444812158243 -0.01596812997247964 -0.01260431688718376 0.01459432605067754 
0.02965941373650291 0.01877268014590866 -0.01335507326311109 -0.03051000135936654 -0.03011878483689582 0.005013981150287741 
0.01243972941333986 -0.00411299168753338 -0.007246950980947378 -0.004382894174424109 0.007318978578419952 -0.004829089079687763 
0.0008836915682843819 -0.02098425165514144 -0.01389987751239247 0.02018586778063398 -0.008202249701335608 -0.001667307293975594 
0.03639705126208106 0.005610048517693054 -0.006611144377301124 -0.01331507029888994 -0.01716359803425548 -0.02101512123385596 
0.008503528128909595 0.03652007809283087 -0.02242931007681022 -0.03397445767349522 0.01222543950703885 -0.02054555540876322 
0.0114672470964254 -0.02068743141762491 -0.02807359421777312 0.03157379567519981 0.002006813855999161 -0.006134537776885972 
0.005962840954074146 -0.01942702904989898 0.01244509821827694 0.01065215122330018 -0.01623272451190782 -0.004507003989775124 
-0.01604092869467608 0.01542105387343936 -0.01367493554632369 -0.01734023978021019 -0.004926519585602931 0.03121482907896015 
0.03588235382804441 0.02934929319344665 -0.02194543224526737 -0.02546490258219151 -0.01010152358405039 -0.01303404069804421 
-0.01749381852196095 0.001733521543813414 -0.02718039006720042 0.02014844602498458 0.01557102829815685 0.001270186807219939 
-0.001298366134424652 -0.01489986014924288 -0.004111897138385114 0.01465303502407935 -0.009281736570883275 -1.763585175101024e-05 
0.01617243751352366 -0.02047453872304377 0.001361219910956332 -0.009742930613533768 -0.001397791766554025 -0.0005458339084111515 
0.020171894510279 0.01459537122536802 -0.01295413660136138 -0.01966319034035029 -0.01486299739213864 -0.001314314749278574 
0.009382732723824823 0.02244839246756873 -0.04303762096380351 0.02961911104505404 0.001681758156007051 -0.03671648542090824 
0.02795397763500697 -0.01465782063195628 -0.02030140690762535 0.02826149940891951 -0.009057955605392328 -0.01995731859806214 
0.02100044974842146 -0.0291247082355042 -0.01252889357683974 -0.008583412116681625 0.004063349875519198 0.01581196806563085 
0.01167601553664783 -0.00437455327214201 -0.02032590043959107 -0.01368700379385374 -0.01898315740076857 0.03289600466406897 
-0.0313091833537609 0.02445610586796943 -0.02949383353435505 0.01984307011427815 0.001846559021925531 0.003682664021920828 
-0.009255567783631709 -0.006906691317559693 0.008413972749971427 -0.001999401258249352 0.002056203347504869 0.0001788129195167822 
-0.008651469410590387 -0.01707805136043488 0.007404838626438244 -0.01180872287945274 0.044080956076074 -0.01095042000335629 
0.04441088923822827 -0.02640292950155639 -0.00568776380442535 0.002153132143272631 -0.008814261991381503 -0.01030195342728788 
-0.0003321795134165393 0.006774961931290275 -0.01909170098067459 0.005571463781899528 -0.004032600209219727 -0.006926877491541244 
-0.006557489923757692 0.03210575645160547 -0.04672405624693075 0.03535956872616978 -0.00787382989375132 -0.009132812411433185 
0.03949058496419548 -0.02745886835056164 -0.0001692964289154912 -0.02138597267772442 0.009466693879948411 -0.02058114867835225 
-0.009377287628225121 -0.01778775900811976 0.002155741171436173 -0.009109583375595613 0.03624738297325298 -0.006301787253697627 
-0.003606790872566044 0.007951856582809756 -0.02289851779417119 0.01272283924003112 -0.0158847762533339 0.01472942983864842 
-0.04092046133555997 0.02807347411590604 -0.01806482223513865 0.01549123075929853 0.00403821112801876 0.001899455542406645 
0.01090236118812479 -0.008951989461983634 2.209323397505466e-05 -0.01618723641274094 0.00294621580384274 0.006762543504599619 
-0.002781611182357709 0.004901420808820389 -0.003268384762243734 -0.01933580626224693 -0.003646482110688337 0.00536524899710819 
0.005341321005370938 -0.003763284856539375 -0.01066164826235983 0.007380356568082585 0.005317561954849295 -0.01294692779521455 
0.003372755922570051 -0.02483516038209873 -0.0278165062972787 0.02949138285905555 0.01458962420427178 -0.01421227611246463 
0.02736103300054795 0.01215159294994257 -0.006565763176964318 -0.02325101778956236 -0.003064278867059587 -0.01832953259930972 
0.0008443398047136984 -0.004151970367185781 0.0002749066960511086 -0.01455316036707433 0.01502179908597232 -0.008392792779313535 
-0.02768121640421297 -0.02782725838961944 0.009423894499315277 0.007455489486387018 0.005693216971774234 0.009500344637795807 
-0.01583300333958122 -0.0003506890585430335 -0.03555009427866196 0.02953215154502507 0.000434010313040667 0.008308791329175513 
0.02329248112103064 0.008913401858909459 -0.01364138671827538 -0.02914365983916343 -0.003006885555661891 0.009207937962708164 
0.006595370077203629 0.001588646038531149 -0.008290028380283684 -0.01605263793823328 -0.01725688089040755 0.02250365227917295 
0.0004229116982817651 -0.003176278219551795 0.01056316914122689 0.007280183344457654 -0.02634128461195728 -0.005142319141926172 
0.01338457037765898 -0.01142811209270732 -0.02826305346245803 0.03025858795717355 0.009090538052628161 -0.01346770571625675 
0.02144778573919892 0.04333885484369332 -0.02208359964858417 -0.02858666901549492 -0.01341169887135501 -0.01135543358431392 
0.02034015688378987 0.002327167318322817 -0.007133432937614244 -0.02759164271728282 -0.006487740580775442 0.003472016920735008 
-0.01251674496013217 -0.01384097383988898 -0.01792350165716816 0.02458143077696844 -0.01852534500877332 0.004737285831216572 
-0.00217194485918423 -0.003709529136301113 -0.006070893373603042 -0.001186888201703578 -0.004653060557571149 0.005948602252242741 
0.02658760142236749 0.02896072495601065 -0.03021360720280935 -0.0373624839457125 -0.0004180071239260215 -0.00449785989508656 
0.01126891763383797 0.01678542565983495 -0.01360281819196347 -0.02115076112658109 -0.001661755904701977 0.001134073266149086 
0.00341670081282192 0.00359812157222714 0.004447499626145639 0.003528430579666752 -0.01191350227359761 -0.0001914921010860523 
-0.0010763480571061 0.003402523186775293 -0.008048781003141043 0.008736577677378088 -0.007079634011331075 -0.008249553989576958 
-0.003106067744732404 0.02509555118598525 -0.01314904646236572 0.002615842045830092 -0.001451314686638524 -0.00606895383880697 
0.03475596092955895 0.01068161744685734 -0.01149617619494973 -0.0299321373121586 -0.01977076237913421 -0.01022063557936569 
-0.00288992616414611 0.01070297674516006 -0.01169714579902835 0.008760595926498011 -0.0182275860945524 0.004542137264496488 
0.01832495452785623 -0.006064183215033421 -0.004364095421218405 -0.0007899688956484149 -0.01600677431770174 0.005946989679739875 
0.04259632521676246 0.0007075961539509305 -0.01406349831554568 -0.02174426579505262 -0.02681848627146908 0.004496693021578007 
0.03354692316108168 -0.01029848965301601 0.01010351700492961 -0.033986049561075 -0.01597354237642341 0.0007470227895702733 
-0.01980776735431629 0.008467492945267325 0.006123442319000077 0.003328245692089295 -0.009142252535442557 0.003679450989994277 
-0.010564505722317 -0.009161807419288482 0.008827304714137818 0.01158079042166644 -0.01545112505901215 0.000985081661613096 
0.005631538906211867 -0.003410865327283927 -0.02221587887618321 -0.01252396591840632 0.02009938704343144 0.009954044020125645 
-0.003592206261243085 0.01744193011830836 -0.009677206900569725 -0.01283638200039119 -0.01080022772330906 -0.008204421757071079 
-0.004819109314078875 0.006642073239088697 0.002517755911207811 -0.01011104469683659 0.00620994372255384 -0.005433192838292751 
-0.01529522645793406 -0.01099902428515999 0.005704019836375493 -0.005854875809819831 0.0009235339779291661 0.004579853029672585 
-0.01780651058072284 0.01046818292094746 0.002429972156808316 -0.003887833419388418 -0.005855531543711824 0.0102835791925559 
0.01952700458426364 0.03704139354563323 -0.005268688272203072 -0.02461480372944962 -0.01964460934141072 -0.019219674140134 
0.04318252061014819 -0.03085915168455272 -0.00314070814414628 0.01169023056412834 -0.01340071175106101 -0.01995426834152142 
0.01806301260451803 -0.03783367894701117 0.01068054834508796 0.02021946459603463 -0.02974973096261157 0.003837256948527632 
0.002667250527859938 -0.01224278022547925 0.01051531877247725 -0.01732388138217332 -0.02177086347956594 0.02524378176036215 
0.001313001255711722 0.03480420870339089 -0.01160905633427947 -0.02763278665153847 -0.02665740487354242 -0.002249956438049829 
0.04125568990523101 -0.01064411834470304 0.004532983629680738 -0.02204160055078998 0.002736069682988668 -0.02066500779302737 
0.005545057481597821 -0.02838856333937913 0.006061047232484299 0.002886530898696606 0.00316206851395069 -0.01083091807429698 
-0.01444494147246116 0.004549603616543634 0.0106290624883483 -0.01469064238121317 -0.02319072627058617 0.01730298810204604 
-0.009508146624995962 0.01591992488085644 -0.00633649355927296 -0.01471609409983059 -0.008231854296781133 0.0009206622316816382 
0.0402131079636598 -0.02159168357153416 -0.01407400796232024 0.02236830957425046 -0.01856535473718762 -0.02591973438809347 
0.03376193677864801 -0.03500608694828256 -0.001440232954249456 0.02531591257158946 -0.02107278655738733 -0.006639373819222652 
-0.001107872877369527 -0.01765724187700618 -0.003773001945539007 -0.01517809756028569 -0.001793083851634861 0.02664059610517041 
0.02935487654883849 0.03635402780623679 -0.02153637588359093 -0.01825662304451914 -0.02038934173984353 0.001060987997815258 
0.0446058237045988 -0.01381029155381973 0.006287934855481674 -0.009048536931439755 0.003915443930403528 -0.02403797285558524 
-0.007891687927855637 -0.01895844055341212 0.01059911309170387 0.001466446566149234 0.01615655508208045 0.003477218971650509 
-0.0204370141080147 -0.01003365989510708 0.006507456458474848 -0.009580292061381611 0.02611379274417617 0.002701824040528623 
0.01326328067845552 0.009742041497029705 0.002133484011397884 -0.01900281404508016 -0.002116540857881519 -0.002828664323582007 
0.06048225522622729 -0.03315839075741202 -0.02420134509640557 0.01744743250220335 -0.02396367483455437 -0.01916867467905517 
0.03841736413218574 -0.03459177723844001 -0.01844541958805662 0.03276029225867792 -0.01622129311428221 -0.01624318808823328 
0.005573409521205175 -0.01235242200314168 -0.009728174863072514 -0.02607922864243944 -0.007545576604029124 0.02847954107978632 
-0.01229338979070525 -0.001432806837605329 -0.01262761105857577 -0.01925051537181287 0.01227161611864644 0.02563005967535773 
0.02737459772531143 -0.001394390070899665 -0.01372648187190986 0.01541453603446041 -0.001407163198962918 -0.02415216515837528 
0.01912901668166428 -0.01505394216674184 -0.002406408313454811 0.01870840740848306 -0.001231555036353482 -0.01022369199786912 
-0.03244387660600292 0.0108706729019436 -0.00168196118556705 -0.0142190001810434 0.02835495222680738 0.008678741126032879 
0.009699243973656624 -0.01617199169002845 -0.0166098205766487 -0.01417865995460291 0.007143444975265398 0.02284440744166539 
0.04882426932666144 -0.01541523902092458 -0.04006709859962402 0.04168605451043175 -0.02569596027099113 -0.0204908565333955 
0.03184852304926618 -0.02279470298911738 -0.01780499301025497 0.02750557050038894 -0.01226355127715093 -0.01830448706376299 
0.01050019245033171 -0.01091476096469114 0.004463515611318342 -0.02774481006794148 0.03200414338343908 -0.004280248956329939 
-0.02696641227063709 0.001386212865527625 -0.008767655359435696 -0.01373966449376418 0.02736890239942182 0.01812471635132092 
0.01977056102954137 -0.000162485551835765 -0.01365975941835386 0.007359782037224203 0.00909983973627366 -0.02155042346240555 
0.01576817993939316 -0.0042720771011573 -0.01950965841425977 0.02900328517640747 -6.317766723022879e-05 -0.01629581613686886 
-0.01795475317795947 0.01795806892730112 -0.007924870134731673 -0.02408453735326321 0.01568214039841317 0.0160995497807624 
-0.004512300131180052 -0.01283005986605159 0.001244725386351938 -0.01892881298877327 -0.01498797176519064 0.0228924333973312 
0.04271642486695106 -0.03819248599590658 -0.009567704399770836 0.03067773179996694 -0.01319750049075179 -0.0264384948888378 
0.03888215653755098 -0.0134885361069264 -0.007004154736929397 0.008259570689277098 -0.02393838475208198 -0.01583840812966129 
0.01014643539849355 0.007062983968969181 -0.008839002201043252 -0.0215101726964639 0.007173402130769103 -0.001965848865254893 
-0.01394324852861607 0.009298832352070035 -0.009466964689210886 -0.01360154977330641 0.02804459322606465 -0.005250779905108792 
0.001221740928610956 0.0006893969106347228 -0.007213899120701181 0.007221293325877738 0.007570627966209218 -0.004248763776491462 
0.02356687196773619 0.0008844970823619454 -0.01816847550127585 0.00312072446450467 0.0158277817114047 -0.01429574109351195 
-0.007277690325105579 0.02380308663551335 -0.02991338755128693 -0.01680258770509155 0.03350965979252622 0.004257826433701229 
0.01565489974090077 -0.008536991813234506 -0.003170412773093283 -0.01341183407941902 -0.04581569632603433 0.03484640044406496 
0.03233436132606311 -0.03033442901195694 0.002772982420439739 0.01519855523989414 -0.02649443948869061 -0.009060549316167362 
0.02734607000335233 -0.02694291168093522 0.004999506265031916 0.002897121190892007 -0.01547360800901829 -0.01339334047707637 
-0.002656933229977653 0.05229145445578683 -0.007324235015618129 -0.02606492778902579 -0.008226636787861726 -0.02044577900771678 
-0.01113540551281374 -0.004253112370338886 -0.0002224336331407221 -0.01379471839096959 -0.002077786198260767 0.008640234368479008 
0.0202637171719767 -0.01828379200662148 -0.008958958547791889 0.001507592427926998 0.00458848241603665 0.006440902549686957 
0.04366011789682396 -0.01166314013497154 0.006434059669289954 -0.01891243348903853 -0.001162537647633576 -0.01846523354595963 
0.03531802280562391 0.03038323715749138 -0.0118179190041739 -0.03922013785249705 -0.01836806616563739 -0.006766400174453687 
0.01074157126724798 0.004553352097990842 -0.004933336907466676 -0.01990059486882838 -0.01170045231682711 0.01023997829445253 
-0.000696628638075414 0.002725825250155208 0.01208992212850702 0.006096277976063439 -0.02779002010853986 -0.002683948846753905 
0.007022324323731062 -0.01090031941143151 0.008948692823849093 -0.006045238817371752 -0.01294352346185488 -0.01032918592963055 
0.02575614067060123 0.03175438518242404 -0.00379691879071694 -0.01936584342530067 -0.02419895863237866 -0.01389464700668086 
-0.01223507284089095 0.002534807675929742 0.00629472198838587 -0.01392134033164979 -0.01807794984924717 0.01069749068328716 
0.002290657975555519 -0.0114483918867633 -0.008211677454538713 0.00944437353598185 0.001603318228806108 -0.004236951250934672 
0.01798795331751166 -0.02321100707728978 0.0005980233309528499 -0.01601347618543484 -0.001528681741887297 0.01501057590910942 
0.03712059144906661 0.003210231780282303 -0.01365186169757104 -0.02058663681378183 -0.01075251452102571 -0.00852184758437069 
0.004138714621072894 -0.01791138744692733 0.008644734751213459 -0.02690107749719481 -0.006481479039261052 0.02075000579658054 
-0.02972744044477234 0.03618358121705924 0.003245357209994867 -0.01329715617387297 -0.007811054280835154 0.01149204673017918 
-0.04344834949788895 -0.02008031573537288 0.01865220805531715 0.005146563182913723 -0.01685417714517989 0.03135268294051325 
-0.01059389258983046 -0.01589816843034472 -0.001978054580408254 0.00632638103421111 0.01844910807478319 0.002960152492923332 
-0.001802912875882857 0.003709223833438774 -0.01065893780777226 -0.001934520983341758 -0.01031889045992609 -0.0005760107738446516 
-0.006768004129487001 0.006949442909099708 -0.003632066856792585 0.009914626948538726 0.004690265963867394 -0.01573943994773399 
-0.001483521514643346 -0.02259465484662589 0.005563473456138848 -0.003145721570747261 0.002700406184431957 -0.003273392294684015 
0.005254214547592439 -0.01838733282336056 0.0046619052524575 0.003710174775190419 -0.006747326826252018 -0.001898729887130264 
-0.008561051263849461 0.03585182139650759 -0.002180424080960275 -0.02946176523098053 -0.01669687887837075 0.002714932890393458 
0.01468652630601378 0.006998948901519973 0.003174325171045927 -0.02100564213215284 -0.006885714908791411 0.004336393327333838 
-0.02073550924509285 -0.02389772213791806 0.002845091670326184 0.01388067098423785 -0.02186219691009667 0.0300134850829808 
0.02833894003545583 -0.02640757413703759 0.005040242614891977 -0.005435056417291625 -0.007538017122441479 0.007924811220726876 
0.03930710584276079 -0.0133721333817345 -0.002922003434338695 -0.01876505708769818 -0.01311723764708947 -0.00510035348817251 
0.02035386168417478 -0.006935797921040536 -0.005215727205016099 -0.003120436414477194 -0.003840756353808776 -0.01068268994150601 
0.01343717532556827 -0.02300267207177303 0.01298329884628214 -0.00528745708159642 -0.01284253052828144 -0.007836642968691585 
-0.01177569284138146 -0.01286496452662689 0.01141128023732915 0.003169480232759285 0.003105761263973983 0.007928484698673542 
0.01034969677545384 0.02408272585538505 -0.007836387073424914 -0.01832690443836336 -0.01602905382567698 0.008546262343320917 
0.001189308131961171 -0.008675120476579142 0.002770102720584956 0.006731188963950554 -0.01729051775065446 0.01955949932426644 
0.0006520017266149466 -0.02694383257297243 -0.004423302112110067 0.02034971769099418 -0.0187024701296761 0.01430970224315127 
0.0134056311479074 -0.02954434917325573 -0.002723546132399623 -0.02907415769050374 0.003716183086836566 0.01862983447725126 
0.0373748239772316 0.01156064580663502 -0.002271080898170792 -0.0269162740381662 -0.01890426366942834 -0.01911315323260662 
0.03249456725204065 1.841298573931996e-05 0.00194811939704666 -0.01012215572736993 -0.02023972932393291 -0.0117592445712033 
0.008903253372396074 -0.002698061917309626 -0.005865977264774867 0.0170737346472281 -0.01679788984952288 -0.00558800986795655 
-0.005214222654769092 -0.03275851394784527 -0.008366900893206972 -0.01211033778647984 0.03618948670159041 0.01169936513122182 
0.01309044666581741 -0.0005348265602627453 0.004948256110037469 -0.01702143276579669 -0.01502347814566436 0.007929891160966287 
0.004680163687047254 -0.01160627877093339 -0.008252701423321849 0.01393298172376889 -0.01303196969662719 0.01098635136760748 
-0.01134038984058804 -0.02603208848302778 0.005407543642565657 0.01773845581151628 -0.007772613722565039 0.008909986671123428 
-0.03937080111386648 -0.01755356308067822 -0.02463412266406371 0.0005959885491816838 0.01396447157482851 0.04142485681830064 
0.02677510034794134 0.003998038137068769 -0.01751915351724614 -0.02070088637468184 0.006282676586403676 0.0044872386978053 
0.05934283203899555 -0.00296327464332295 0.000822539651492072 -0.005327638459978542 -0.02847168087874487 -0.01290945964777642 
0.03568134094783418 -0.002786903944953064 -0.008003020268948394 0.006697790380746719 -0.01394250338769967 -0.01981179011387326 
0.004097611261395816 0.004693027618514984 -0.01867344914331004 -0.009283858374381133 0.04208696989280976 -0.02113739308940549 
-0.04162469992883621 0.00389766223564097 0.003347483544426244 -0.02430954079314883 -0.003463617026462383 0.0474927784397344 
0.004628102935113637 -0.01858154762206018 -0.008076527098712982 0.02726636997658083 -0.006047198139176647 -0.005669880712508216 
0.0009576016670967336 -0.02186467332629132 0.00738503767331648 0.004192629229540254 -0.008943598237523847 0.006691551964857455 
-0.006461896903034422 -0.009966632405849222 -0.007746846006285237 -0.006169547988685464 0.002541674130547303 0.0227781122878477 
0.02796830353332986 -0.004922948526950926 -0.02518976482484529 -0.0232620125249781 0.02498765078824732 -0.002412117609338078 
0.03411330466140897 0.006686084392561648 -0.01489736083443312 0.02376428385173819 -0.01200686532645375 -0.01874310335803979 
0.03466954054027684 0.003004505094263765 0.0002628566923036853 -0.01027655822355058 -0.01527853827500838 -0.01836415869428741 
0.002769621298505373 0.002345101944186191 -0.009386209232597167 -0.01152505390417925 0.02066048026752147 0.001257171380949454 
-0.02806029063124211 -0.03037878514187901 0.002130890819377097 -0.01456312563969879 0.004218333765072036 0.0356620462571685 
0.005437133684724616 -0.01501809044307281 -0.01337958485608934 0.02613674215945861 -0.01076210781204456 0.00333494016127181 
0.01820828983779526 -0.01107013536728194 -0.001210942441764868 -0.001928128865593192 -0.009938897870871653 0.005996884544145351 
0.00279687448112399 0.001652626083458913 -0.01113229249257443 -0.001636065719340002 -0.001694610074025353 0.006172254164295586 
-0.01597734843782333 -0.004130779312610535 0.002879295794336796 -0.02164636582010543 0.02785794031616412 -0.002204319794078748 
0.007796492496672479 0.001871313756778286 -0.01044746343981956 0.01278672286365802 -0.006005232473709375 -0.009066455191344757 
0.03600124783896013 -0.005889746215996746 -0.0001218893449631324 -0.01225100440986727 -0.0201473312140616 -0.004190382655639703 
0.03428666760726419 0.006746523313686356 -0.02988831727901793 -0.01399565403406128 0.02318198945155895 -0.02019406896262137 
0.01592553458491285 -0.015754091703823 0.005458057700631548 -0.01576283220193043 -0.02372053663812918 0.01273300072881031 
-0.01121965463286942 -0.02311276380195186 -0.004666893914727208 0.02985314752496922 -0.01890074273744711 0.01879811450544892 
0.001041791599082329 0.008015523977632773 0.002227359862803579 -0.02173190605813268 -0.01398169746545288 0.01649091415200107 
0.0003829154981323172 0.02880158895683016 -0.01186672547282361 -0.01594907120487165 -0.004425886028190541 0.005193393262208763 
0.00656571934326251 -0.005224613955672887 4.204632143104909e-05 -0.01009225540194679 -0.005623914985328491 -0.00121738287226402 
0.01463400329190565 -0.01420994077499383 -0.003070936448952915 0.003316215445627775 0.009733052638471937 -0.01055454999942528 
0.01672256436431127 0.006839696491012826 0.0008672480768213196 -0.02056299640238907 -0.008465400076589732 -0.007677570360277298 
0.05783324992375958 -0.01035228304977228 -0.01787776838494236 -0.01802169338307379 -0.006155094309033709 -0.02196281744061473 
0.03060137505024974 -0.01913778893579502 0.007346750645922856 -0.00477474811147015 -0.02932880819512838 0.01001978911947265 
-0.03116434584777544 -0.02163829920149706 0.00225411032552549 0.01313649473457563 -0.01363620453669719 0.02842687108923801 
0.01087455136000584 -0.002968757575650028 0.007843349570961732 -0.02813690913905753 -0.008059835151663673 -0.003459986834624864 
0.001721943009865253 -0.00344879514132435 -0.009654330400900241 0.01830922411599162 -0.01208494655763393 -0.003702532967733186 
-0.003716771871894493 -0.01442827480329078 0.004969084671507047 -0.00269287457050614 -0.006134737705637287 0.01188638225085057 
0.01421988536268122 -0.008825595745409918 -0.003404583550433851 0.004259446243176697 -0.002858295684559023 -0.00865955182275575 
0.01198345439689229 0.009514373346902218 0.006594555002605902 -0.01653116140763684 -0.009788388855072466 -0.01136936439241315 
0.02370282352665774 -0.01348462106208586 -0.01831905720132681 0.001993397357391121 0.004492435524265121 -0.004641233053940139 
-0.0154158150781323 -0.02881642152839741 -0.005317363314523914 -0.02277358931760571 -0.01291756567919154 0.00119391301263161 
-0.001228953801017455 -0.0007780692040142127 0.002435708796823583 0.0001484423187622867 -0.0009253483392338427 -7.349854534490769e-05 
-0.0004255431284970426 -0.0004285773579559671 -0.0002025286617019684 0.001970622878468393 -0.0001366888537560461 0.0001797756169898183 
-6.829768158916772e-05 0.0009077298115939541 0.001897144930935885 -0.0008367737035221087 -0.0004411512951830536 -0.001528049539417742 
-0.0005692429359436339 0.0005507301319405371 0.0002954759423036499 -0.0002099483190663623 -0.0002447472624937399 0.0004135363784650294 
7.709085671935148e-05 0.0002295482027968006 -2.117582368135751e-21 -0.0003553349261315075 -3.388131789017201e-21 -3.872922447200823e-05 
-0.0001626695078023766 0.0005046408316512982 0.000519784721958735 -0.00068907479018086 -0.0001755950327903207 -0.0002123185571210843 
0.002867843554221447 0.005109728099581521 0.001796056057827535 -0.004948413241331068 -0.002827555987107801 -0.002560942793865394 
0.0004239095394060974 0.000723041557369439 0.0002585859782624391 -4.729911802417894e-06 -0.0002764680170852552 -0.0008160434251688706 
-2.591770348888496e-05 0.0003480748222218252 0.000196536469581285 -0.0003608334283693982 -1.621119070187722e-05 -0.000138085763356929 
-0.0002230113579020599 -0.0002696351751148706 0 9.363183478911628e-05 0 0.0002131690246169639 
0 0.0005504351010565328 0 -0.0002595845373587954 -4.417638349787243e-05 0 
-0.0001557861967087121 0.0004959411507819826 -9.145792837152419e-05 -0.0006147237316186425 -0.0001956418299846477 0.0004109270860565136 
0 0 0 0 0 0 
-0.0004571063674539412 -0.0004193808885559694 0.001265704670778593 -0.0004291599517870583 -0.000291076749574377 0.0004106330116065231 
0.001685254744447479 9.908874587294081e-05 0.002876165503750666 -0.003960403017907117 -0.0006684373712924482 -0.002129868985318575 
-0.0002037536311332282 0.0002186419027696305 0.0006925706243669227 0.0001837155895417671 1.01643953670516e-20 -0.0002453017084617302 
0 0 0 0 0 0 
0 0 0 0 0 0 
0 -0.0002066215765824109 0 0 -7.327004123417631e-05 0.0001815311103787709 
1.694065894508601e-21 -4.471908739908822e-05 0 8.707908224289564e-05 0 0 
0 0 0 0 0 0 
-7.095097880966363e-05 0.0004073593443800962 0 -0.0001994789389162215 0 -6.324012082715798e-05 
-3.013681730232255e-05 0.0001624584429394274 0 0.0002091670145951198 0 -0.0001123193897594335 
-4.219113813437631e-06 -0.0002202990676761243 0 0.0003489268486278636 0 6.776263578034403e-21 
-2.591770348888496e-05 0.0003827575106155517 0 -0.0001397598340327436 0 -0.0001123193897594335 
-0.0002160191027314206 1.905824131322176e-21 0.0002920243006324127 -6.451754969873662e-05 -1.705979553501979e-05 0 
0 0 0 0 0 0 
0.001855875421725077 -0.002451374799319209 0.001408473856725639 -0.001818988299596706 0.0002250645402819204 -0.001810468859276395 
-0.0003913309002094758 -8.740574483167851e-05 0 -0.0001445244286217438 0 0.0002876602554841039 
0.0002855723619200404 -0.00148849285294417 0.0002119139932524198 -0.0004328302447223095 -0.0005661031103741461 0.0008524054947880029 
0.001643815982814341 -0.0007019380485103877 0.0002534235655923301 8.518952003907583e-06 -0.0006732735520182423 -0.0008074854750485694 
-0.001040287746767059 0.0003113254581948851 0.0004500593312481567 0.001331929735792022 -5.105682115267892e-05 -4.342723450620376e-05 
-0.0001860621898460313 -0.0003205902118848326 0.0003286886608444842 8.470329472543003e-22 -2.898136884958009e-05 0.000153140651354591 
0 0 0 0 0 0 
-3.013681730232261e-05 0.0003171062980574366 0 -4.385562575186757e-06 0 -0.0001123193897594335 
0 0 0 0 0 0 
0 0 0 0 0 0 
0 0 0 0 0 0 
-1.71470595823509e-05 -0.0002671986632408723 0 0.0004095366495366509 0 6.776263578034403e-21 
-4.219089716304639e-05 0.0001380508160081714 0 6.65932994630574e-05 0 6.776263578034403e-21 
0 0 0 0 0 0 
0 0 0 0 0 0 
0 0 0 0 0 0 
0 0 0 0 0 0 
0 0 0 0 0 0 
0 0 0 0 0 0 
-4.63645656843095e-05 -8.740574483167851e-05 0 9.363183478911628e-05 0 -1.398230029046396e-05 
-3.013681730232261e-05 -6.612560819484083e-05 -0.0002138855062492213 5.54204406041312e-05 0.000866402096377811 -0.0002096296295072481 
0 0 0 0 0 0 
0 0 0 0 0 0 
0 0 0 0 0 0 
-8.809803839201453e-05 0.0002948085362572335 0 -3.494866549877028e-06 0 -6.324012082715798e-05 
0 0 0 0 0 0 
1.694065894508601e-21 -4.471908739908822e-05 0 8.707908224289564e-05 0 0 
0.0003189102760927204 0 0 -5.83363336276917e-05 -3.23018408393151e-05 -0.0002860042863809764 
-0.0007615968275135079 -0.0005390841835869354 -6.776263578034403e-21 -0.0001190159904848086 -6.427927454129839e-06 0.001007648974634185 
0 0 0 0 0 0 
0 0 0 0 0 0 
0 0 0 0 0 0 
-0.002124246471213709 -8.139705500600659e-05 0.004550277423079874 -0.003244091191909521 -0.0004459244894034004 7.223274941440463e-05 
-0.000326584103035286 -0.0001896359487474265 0 0 -6.695047175008304e-06 0.00036563482779456 
-0.0005781324968389372 -0.0001125508081228629 0.000386437044536503 -0.0001750531552370029 -1.705979553501979e-05 0.0003016425557745679 
0.0001676047854364251 -0.0001965230244241902 6.287948286488355e-05 -0.0002230512342394752 -3.745237886598776e-05 0.0001878688460527052 
-0.000183988053023311 0.0004568418966235288 0.0001207728577364924 0.0009977822271665274 -0.0007656262799178895 -0.0004801760977836672 
-4.219113813437631e-06 -0.0002202990676761243 0 0.0003489268486278636 0 6.776263578034403e-21 
-1.71470595823509e-05 -0.0001125508081228629 0 0.0001959840723663445 0 0 
0 -0.0001546478551180094 0 0.0002135525771703066 0 6.776263578034403e-21 
0 -0.0001546478551180094 0 0.0002135525771703066 0 6.776263578034403e-21 
0 0 0 0 0 0 
0 0 0 0 0 0 
0 0 0 0 0 0 
0 0 0 0 0 0 
0 0 0 0 0 0 
0 0 0 0 0 0 
0 0 0 0 0 0 
-0.0001555246044697331 -0.0002621742369823054 0.000126711782796165 -3.474090449809619e-05 -0.0001054518391567623 0.0004738731324336811 
0 0 0 0 0 0 
0 0 0 0 0 0 
-1.694065894508601e-21 -9.179743436906731e-05 0.0001032667798098574 0 0 0 
0 -1.730047624467767e-05 0 0.0001076024925076487 0 0 
0 0 0 0 0 0 
0 0.0005504351010565328 0 -0.0002595845373587954 -4.417638349787243e-05 0 
0 0 0 0 0 0 
0 0 0 0 0 0 
0 0 0 0 0 0 
0 0 0 0 0 0 
0 0 0 0 0 0 
0 -0.0001546478551180094 0 0.0002135525771703066 0 6.776263578034403e-21 
-7.095097880966363e-05 0.0004073593443800962 0 -0.0001994789389162215 0 -6.324012082715798e-05 
0 0 0 0 0 0 
0 0 0 0 0 0 
-4.63645656843095e-05 -8.740574483167851e-05 0 9.363183478911628e-05 0 -1.398230029046396e-05 
0 0 0 0 0 0 
0 -0.0002066215765824109 0 0 -7.327004123417631e-05 0.0001815311103787709 
0.0002110475669052382 -0.0001526830355793901 0 -0.000110620720670827 -3.388131789017201e-21 -8.812047046572042e-05 
-0.001619548488717098 0.000174702539424189 0.003021484866314945 -0.000632694454048002 -0.0001410730697047799 -2.105387898764019e-05 
0 0.0001039521564737116 0 0.0001236728102799625 -6.834442687802304e-05 -4.773774512657945e-06 
0 0 0 0 0 0 
-3.42941191647018e-05 -0.0002251016162457258 0 0.0003919681447326889 0 0 
0 0 0 0 0 0 
0 0 0 0 0 0 
-7.095097880966363e-05 0.0004073593443800962 6.287948286488355e-05 -0.000237842485973958 -5.1505380266726e-06 -6.324012082715798e-05 
0 0 0 0 0 0 
0 0 0 0 0 0 
0 0 0 0 0 0 
0 0 0 0 0 0 
0 0 0 0 0 0 
0 0 0 0 0 0 
0 0 0 0 0 0 
-2.591770348888496e-05 0.0003827575106155517 0 -0.0001397598340327436 0 -0.0001123193897594335 
-1.18584612615602e-20 -0.0001365165217681554 0.0001032667798098574 8.707908224289561e-05 0 0 
-0.001617376374257963 0.003010742034481142 0.001849837387112482 -0.001909409076889276 2.735327824268587e-05 -0.0004060729311451522 
-3.138100928669814e-05 0 0 7.785922822648112e-05 0 0 
0 0 0 0 0 0 
0 0 0 0 0 0 
0 0 0 0 0 0 
0 0 0 0 0 0 
0 0 0 0 0 0 
-0.0001262138867622365 -0.0001819932797820097 0 -9.006529021346398e-05 -2.925041174574179e-05 0.0004362003577347618 
-0.001571601614584291 -3.402529344448383e-05 0.004950686802780868 -0.002818956674319106 -6.437450399132683e-20 -0.0007068049840144112 
0 0 0 0 0 0 
0 0 0 0 0 0 
0 0 0 0 0 0 
-0.0008363747358858514 0.0006534376856386128 0.001079695527410127 -0.001013304677458055 0.0001382856314778026 -0.0004903600887215999 
0 0 0 0 0 0 
0.0001768862950815626 -0.0003056698672095114 0 -0.0003421890172413526 -6.695047175008304e-06 0.0001967636508900674 
0.0005436172598027554 0.0002733553859016608 0.0006042969489502281 -0.0004212531636612454 -0.0001460505457566139 -0.0005961156729671836 
-0.0002790711075137248 -0.0002629748719376981 0.0001659514927663676 0.001575295663212776 -0.0001510166122106258 -0.0003662694084403889 
-0.000224480299950693 -0.0002783491952022105 0.001013602305069237 0.0007028345652732435 -0.0001594318968729275 -0.0004475703847200408 
-6.584777883383982e-06 -8.491884712121938e-05 0 0.0001051781490841724 0 0 
-0.002481966741520655 -0.003419329031037406 0.001788550918803113 -0.0006912961136034434 -0.001545349305731201 0.003121998330381172 
-0.0001896662262195255 -0.0002299342491899393 0.0001323625233749175 -0.0002165111397092636 -8.470329472543003e-22 0.0004738731324336811 
-7.297283458688683e-05 0.000402993366842006 0.0004551099250250034 -0.0002963697428151122 -4.417638349787243e-05 -0.0001626941383850191 
-9.68686822985486e-05 0.0007901168549956477 0 -0.0003392387729489651 0 -0.0001755595105865914 
0.00357584850603485 0.0007343981635887367 0.002295352691187424 -0.002831139190726352 -0.003896863301136855 -0.001202644920737317 
-0.0002725736905739163 0.0007205874439802786 -1.694065894508601e-21 -0.0003576801519192059 -4.417638349787243e-05 0.000323485809515816 
0 0 0 0 0 0 
0 0 0 0 0 0 
0 0 0 0 0 0 
0.0006973709054397363 -0.000381267762164338 0 -0.0002568256655458351 -3.388131789017201e-21 -0.0002569916473702135 
0 0 0 0 0 0 
0 0 0 0 0 0 
8.854394019594432e-05 0.0009719262280219875 -1.01643953670516e-20 -0.001139565081775986 -0.0001620976099413348 0.000236788052787375 
-5.183540697776992e-05 0.0007655150212311034 0 -0.0002795196680654873 0 -0.0002246387795188669 
0 0 0 0 0 0 
0 0 0 0 0 0 
0 0 0 0 0 0 
0 0 0 0 0 0 
0 0 0 0 0 0 
0 0 0 0 0 0 
-7.095097880966363e-05 0.0004073593443800962 0 -0.0001994789389162215 0 -6.324012082715798e-05 
0 0 0 0 0 0 
0 0 0 0 0 0 
0 0 0 0 0 0 
0 0 0 0 0 0 
0 0 0 0 0 0 
0 0 0 0 0 0 
0 0 0 0 0 0 
0.0003494017656332406 -0.0002622719221253996 0.0002920243006324127 8.831941167931888e-06 -0.0001189339577937613 -0.000464279628772891 
-6.816817424621484e-05 -0.0001022135378611514 0.000604296948950228 -0.0001413862823800023 8.470329472543003e-22 -0.0001458183444847565 
-4.219113813437631e-06 -6.565121255811495e-05 0 0.0001353742714575568 0 0 
0 0 0 0 0 0 
0 0 0 0 0 0 
0 0 0 0 0 0 
0 0 0 0 0 0 
0 0 0 0 0 0 
-0.0001766467922177504 -0.0001822294302831917 0 0 0 0.0002271513249074279 
0 0 0 0 0 0 
0 0 0 0 0 0 
0 0 0 0 0 0 
0 0 0 0 0 0 
0 0 0 0 0 0 
0 0 0 0 0 0 
0 0 0 0 0 0 
-2.591770348888496e-05 0.0003827575106155517 0 -0.0001397598340327436 0 -0.0001123193897594335 
-4.63645656843095e-05 -8.740574483167851e-05 0 9.363183478911628e-05 0 -1.398230029046396e-05 
0 0 0 0 0 0 
0 0 0 0 0 0 
0 0 0 0 0 0 
-7.095097880966363e-05 0.0003155619100110289 0.0001032667798098574 -0.0001994789389162215 0 -6.324012082715798e-05 
0 0.0005504351010565328 0 -0.0002595845373587954 -4.417638349787243e-05 0 
0 0 0 0 0 0 
0.0004063054228129907 0 0 -0.0001146408191088148 -9.612956130366455e-05 -0.0003170600399904598 
0 0 0 0 0 0 
-0.0003449663345251662 0 0 -0.0002381562634108601 0 0.0003016425557745679 
0 0 0 0 0 0 
0 0 0 0 0 0 
-4.63645656843095e-05 -8.740574483167851e-05 0 9.363183478911628e-05 0 -1.398230029046396e-05 
0 0 0 0 0 0 
0 0 0 0 0 0 
0 0.000218629446127522 1.694065894508601e-21 -0.0001275212489426017 0 -0.0001014186415185763 
-0.0002759555033254119 0.0005008301983251717 0.00025616225558464 0.0001413075582191258 -0.0004253769977625382 -0.0004480978219737666 
-0.001628135443509676 -0.006251895649965507 0.007281688632637812 -0.01063902496247186 -0.00369462021283393 0.008537674177134798 
3.218725199566341e-20 -0.0001492621954127223 -8.618706742104137e-05 0.0002135525771703066 0 6.776263578034403e-21 
-0.00308751269674903 0.009954668564328514 0.008086620192107567 -0.005484189937103328 -0.001434367952157143 -0.004624929716540416 
-3.013681730232261e-05 0.0003171062980574366 0 -4.385562575186757e-06 0 -0.0001123193897594335 
0 -0.0001002885403652294 0 0.0001425837800871368 0 -2.941535959404345e-05 
-2.591770348888493e-05 0.0003380384232164634 0 -5.26807517898481e-05 0 -0.0001123193897594335 
-0.0004480356007106046 -0.0004847967448565128 0.0004551099250250034 -3.678520545631678e-05 -0.0001378372541104296 0.0004798910970801405 
-6.816817424621484e-05 -0.0001022135378611514 0.000604296948950228 -0.0001413862823800023 8.470329472543003e-22 -0.0001458183444847565 
0 0 0 0 0 0 
0 0 0 0 0 0 
0 5.435931475277997e-05 0 -7.096879708316984e-05 0 -2.941535959404345e-05 
0 -0.0001546478551180094 0 0.0002135525771703066 0 6.776263578034403e-21 
0 0 0 0 0 0 
0 0 0 0 0 0 
-0.0002496196268046371 -0.000275311849744939 0.0004551099250250034 -0.0001077540025394866 0 3.504182692836529e-05 
0 0 0 0 0 0 
-1.71470595823509e-05 -0.0001125508081228629 0 0.0001959840723663445 0 0 
0 0 0 0 0 0 
0 0 0 0 0 0 
0 0 0 0 0 0 
0 0 0 0 0 0 
0 0 0 0 0 0 
-0.0003449663345251662 0 0 -0.0002381562634108601 0 0.0003016425557745679 
0 0 0 0 0 0 
0 0 0 0 0 0 
0 0 0 0 0 0 
0 0 0 0 0 0 
-1.71470595823509e-05 -0.0001125508081228629 0 0.0001959840723663445 0 0 
-0.0002716803393623027 0.0008884497316263318 0 -0.0002593853687169136 0 -0.000691230475562314 
0 0 0 0 0 0 
-0.0001420012857699001 -4.150254887032856e-05 0 0.0005014904523676472 0 -0.0002304101390986485 
-0.000223539689770994 0.0002183652054677789 0.0002495429790248 0.000103715336452693 -0.000297404865019601 -0.0005155032763080943 
-0.0008331196329653516 -0.001767851681302784 0.00257011722104332 0.001412225641972227 -0.001562609596802939 0.0006176753504234954 
0 0 0 0 0 0 
-0.0001455270580178784 5.700522100658465e-05 0.000604296948950228 0.0004476524870942916 -5.090066939859165e-05 -0.00025813773424419 
0 0 0 0 0 0 
0 0 0 0 0 0 
0 0 0 0 0 0 
0.0003376903649192429 -3.540038768115104e-05 0 0 -3.886972587885521e-05 -0.0004575811990793777 
0 0 0 0 0 0 
-1.71470595823509e-05 -0.0001125508081228629 0.000126711782796165 0.0001522202499647383 -0.0001054518391567623 0 
0 0 0 0 0 0 
0 0 0 0 0 0 
0 0 0 0 0 0 
-1.71470595823509e-05 -0.0001125508081228629 0 0.0001959840723663445 0 0 
-2.591770348888496e-05 0.0003827575106155517 0 -0.0001397598340327436 0 -0.0001123193897594335 
-7.095097880966363e-05 0.001508229546493161 0 -0.0007186480136338121 -8.835276699574485e-05 -6.324012082715798e-05 
-0.0003202752194556529 1.3834464613017e-05 0.001311860677710313 -0.0005305382261326908 1.694065894508601e-21 -9.810136901919381e-05 
-0.0007680499812828256 0.0002803960641321198 0 1.125410335173583e-05 0 3.275878485265186e-05 
0 0 0 0 0 0 
-6.567512845139992e-05 -0.0002251016162457258 0 0.0004698273729591699 0 0 
-1.694065894508601e-21 -9.179743436906731e-05 0.0001032667798098574 0 0 0 
0 3.388131789017201e-21 0.000126711782796165 -4.376382240160615e-05 -0.0001054518391567623 0 
0 0 0 0 0 0 
0.0002077072764827219 -0.000187376038831698 5.619128284066265e-05 -0.0001270553714761166 -0.0001666522027399328 6.425769525356077e-06 
-0.0003771253919857455 -0.0001003284229375181 0.001292118782923793 -0.0004958740484972565 -4.805281851073379e-05 3.18491205463028e-05 
-8.531523382856573e-05 -0.0002147643459840143 0.000604296948950228 5.459778998634202e-05 8.470329472543003e-22 -0.0001458183444847565 
0 0 0 0 0 0 
-0.0003449663345251662 0 0 -0.0002381562634108601 0 0.0003016425557745679 
-3.138100928669814e-05 0 0 7.785922822648112e-05 0 0 
-0.0004317643086440405 -0.0002999268469545608 0.0002920243006324127 0.0001314665226676078 -1.705979553501979e-05 0.000323485809515816 
-9.686868229854866e-05 0.00069831942062658 0.0002299785626060224 -0.0003830025953505711 -0.0001054518391567623 -0.0001755595105865914 
-0.00164495040744141 0.0005080612247852392 0.001369503078273493 -0.0005628987658090308 -0.0005018985695590049 0.00110490461348196 
-0.006715475484786719 0.01040291243535759 -0.02003845783830301 0.0001537994989424678 -0.01847214164846535 -0.01557120679935596 
-0.003202698715220368 0.00214468715026774 0.001238913389495786 -0.001778679195263075 -0.0002110372898220868 -0.0006312434830485591 
-1.045221305307358e-05 -0.002703120101129874 0.0004970570044529262 -0.001208129014332861 -0.000360913824412324 0.001494414362077377 
-0.002057061566016774 -0.002990053402298113 0.001888223727614146 -0.002129000364000824 -0.001119072458362936 0.001164974443349485 
-0.002642618762343036 0.00383360016524464 0.001164067321447567 -0.001612042788098642 -0.001198938563344639 0.0006738546975791972 
0.0002880388842244354 0.0005426905812546262 0.0001791684259609421 -0.0003426377553201439 -9.743800808621696e-05 -0.0006012986855584401 
0.0002910560192392804 0.001377026726423806 0.000229848552135956 -0.000696389188571461 0.001055798877754699 -0.001575383401688272 
0.007485572962626521 0.006058251601597123 0.004039151023672107 -0.01280853131218149 -0.003976211103231869 -0.007225372881554341 
-0.003176398890956671 0.00044784727305429 0.002431753135675972 -0.001052064023568002 -0.001699609385689499 0.002582296131367558 
-0.0001843796160375926 0.0007591344730266518 0 -7.555333006023221e-05 0 -0.000159577604615931 
-4.920559955035092e-05 -0.0002330956236352807 0 0.0005493546910614157 0 0 
-9.715087910436258e-05 -0.0006194441195732557 0.0002932906066358864 -0.00041720548234021 -0.0003129960731634109 0.0002420314774009784 
-0.002350185426694279 0.001195897837211436 0.0005131762907693595 -0.001002146596642445 -0.000472265806850772 0.001915341352516425 
3.388131789017201e-21 -0.0001261708638313116 0 0.000226492707195704 0 0 
-0.001714385568635491 -0.001265282140689798 0.001669550449576983 -0.001615183264829883 -0.0007382433904180445 0.004037788252611256 
0.0038811273767719 -0.00329493026325808 0.004368942792194872 -0.007847845889454712 -0.002181051285678169 -0.002511087640257966 
-0.0005561393995712606 6.099494417579646e-05 -0.0004241381118502473 0.00183638661333876 0.0006193579398912102 -0.0003030527382427383 
-4.717378726814231e-05 0.0003092125621690244 -0.0001508408946557509 -7.936849041337765e-05 -0.0001635991613189295 -1.422633965586461e-05 
-0.0002648323922861198 -0.0001393861075769214 0 0.0001601547097675663 -0.0001352487625233717 0.0007506220430609791 
-5.344739198148189e-06 -8.316642420210536e-05 0 0.0001714910303617614 0 0 
-0.0004040636865610185 0.0002915318958888263 0.0001502715402743776 -0.0002746577500102027 -6.485096002415737e-21 0.0003839136726725975 
-0.0004626142157044307 -5.929230630780102e-21 0.0006253826217011159 -0.0001381671124250595 -3.653428716127705e-05 0 
-3.075551709905831e-05 0.0003874404749750324 0.0001252784102880053 -0.0001464254287567941 -5.165679657689377e-05 -0.0001332849923907616 
0.0003358981990268998 0 0 -6.144383192492958e-05 -3.402251660283568e-05 -0.0003012393513510134 
-0.0002084757235251027 0.001208962928670707 0.0007435599963973455 -0.000478899860273972 -5.189340109652892e-05 -0.0006994697000198757 
-0.0002897279435487483 0.0002147966393414018 -5.082197683525802e-21 -0.0001748798174839331 -5.189340109652889e-05 0.0008165350458876297 
-0.0004502818225763399 0.0004813720609030813 -0.0002346721789289615 -0.0001484540375972026 -0.0002713956487207936 0.0005813426022008069 
-0.0006000242043520485 -0.0006745249097475554 -0.0002028226416710436 7.331913497071666e-05 0.001561887652740321 -0.0006579366899558905 
-0.00303415885618737 -0.001821233422852518 0.002978067283749056 -0.00237529146048433 0.006307062024550475 0.0001777630459350002 
-0.0008481939174248778 0.001238265722193266 0.0003849879793693263 -0.0002944415884344966 -3.912241772832265e-05 -0.0002335960207546646 
-0.003610892177949263 -0.004351005264932925 0.006138827318692495 2.480811183483167e-05 -0.003675965695965471 0.003887126933306278 
0.0002644384696391247 -0.0003728085122311974 0.00129636044540148 -0.002666711586347397 -0.0007994498686010068 -0.0004495777837703061 
-0.006354840058652137 -0.004881177629213787 0.001937428320191922 -0.0009133884075772673 0.00464914049578919 0.007106205183606962 
-0.001048735336572658 6.996734664454621e-05 -3.044423927416282e-05 8.23218617815576e-05 -0.0004154078751905928 0.001643373550541406 
-0.0006039596781283976 -0.0002192127542155713 0 -0.0003933804165869261 -7.398077554449889e-05 0.001021086466245379 
-0.0002594876530879715 -0.0001229824586058861 0 9.947419955358769e-05 -0.0001352487625233717 0.0007506220430609791 
0 0 0 0 0 0 
0 0 0 0 0 0 
0.0002916041038575395 -0.0002703700078360507 0 -3.716229532308613e-05 0 -0.0001217559207076716 
0 0 0.0001252784102880053 -9.138846294969655e-05 -5.165679657689377e-05 0 
-5.344739198148189e-06 -8.316642420210536e-05 0 0.0001714910303617614 0 0 
0 0 0 0 0 0 
0 0 0 0 0 0 
-3.075551709905831e-05 0.0004542032502061023 0 -0.0001658474859548803 0 -0.0001332849923907616 
-0.001193550613435851 0.000328628866917073 0 -0.0004043152377284287 0 0.000842424918828224 
0 0 0 0 0 0 
0 0.0002892195673703104 -1.01643953670516e-20 -0.0001686947531678262 0 -0.0001341642497972498 
0 0 0 0 0 0 
-0.0008927701966975064 0.003368165702322863 0.0009419675070939156 -0.00167199271515973 -0.0002311032503767749 -0.0005569343634668287 
-0.0002594876530879715 -5.6219683374816e-05 0 -1.133632059419508e-05 -0.0001352487625233717 0.0007506220430609791 
-0.0004040636865610185 0.0001019894589405532 0 -0.0001658474859548803 -6.485096002415737e-21 0.0004747765511265968 
0 0.0003118833449087018 0 -0.0001083990761053482 -8.242647913813333e-05 -5.757388616046508e-06 
-7.792930436720061e-05 0.0002985091984312618 0 4.022906743782067e-05 0 -0.0001475113320466262 
0 -0.0001856134638420994 0 0.0002563128569144429 0 0 
0 0 0 0 0 0 
0 0 0 0 0 0 
-0.001640334021677364 0.001193585278703918 0.000742990642015972 -0.0004898121498531767 -0.0001635991613189294 -9.053354985128394e-05 
-0.001162795096336792 -0.000119214819451605 -0.0001017725194717448 -0.000238467751773548 0 0.0009757099112189854 
0 0 0 0 0 0 
0 0 0 0 0 0 
-0.003190171315977333 0.001316864446106746 0.001055561774268757 -0.003195731202467093 0.00337177695049449 -0.001731564817153132 
-0.001162795096336792 5.221237669261794e-05 -0.0005451524857007752 -0.000238467751773548 0 0.0009757099112189854 
-0.0006812518250134042 -0.0005913472886842798 0.001441351762180714 -0.0003482255985660416 0.0007137755064879501 -0.0008820845608006514 
-0.0004184123279762668 -0.0004045902513087767 0 7.386906976285816e-06 0 0.0004267274493490634 
-0.002258397451772587 0.001033089747880435 0.001435928601711618 -0.0004815762735166234 -0.0008134858436044443 -0.0004183973744102437 
-0.0002594876530879715 -0.0008084224023774625 0.000339636454282669 0.000412672658235285 -0.0004133629797158962 0.001072442322769923 
-0.0003856013579318238 0.0003920312359935817 1.694065894508601e-21 0 0 -5.015551418195149e-05 
0 -0.0001856134638420994 0 0.0002563128569144429 0 0 
-8.772172070440548e-05 -0.0002998583988663506 0 0.0007557273213993092 0 0 
-0.0004626142157044307 -5.929230630780102e-21 0.0006253826217011159 -0.0001381671124250595 -3.653428716127705e-05 0 
-0.0001828404945292999 -0.0001076955185486303 0 -6.994743304111832e-05 0 0.0003217990457749868 
-6.724621310726164e-05 -0.0001358710859462218 0.0004193946854157266 -3.389844699488217e-05 0 -0.0001499265413366213 
-0.0004626142157044307 0.0002413381566644998 0.000625382621701116 4.319659928518446e-05 -0.0001333176573033895 -5.511733385147029e-05 
0 0 0 0 0 0 
0 0 0 0 0 0 
-1.694065894508601e-21 -9.884415746347194e-05 0.0001111939338438718 0 0 0 
0 0 0 0 0 0 
0 0 0 0 0 0 
-4.989343026063366e-05 0.0003285847684031037 0 5.289125114378467e-05 0 -0.0001332849923907616 
3.388131789017201e-21 0 0.0001791684259609421 -0.0001093128637107776 -1.467591254008667e-05 0 
-0.00118909754087021 -0.0004785152213870977 0.000657367218808219 -0.0001663794109078853 -0.0004167181168561423 0.0009757099112189854 
0 0 0 0 0 0 
0 0 0 0 0 0 
-3.851612115405454e-05 0 0 9.556211019011055e-05 0 0 
3.388131789017201e-21 -5.940808860024155e-05 0 0.0001156821870479213 0 0 
0 0 0 0 0 0 
0 0 0 0 0 0 
0 0 0 0 0 0 
-0.0002017792763442214 0.0004788694688963412 -4.065758146820642e-20 0.0002792061856908244 0 -0.0005383439056742432 
-4.717378726814231e-05 -8.893127654377031e-05 0 9.526603324491812e-05 0 -1.422633965586461e-05 
0 0 0 0 0 0 
3.388131789017201e-21 -5.940808860024155e-05 0 0.0001156821870479213 0 0 
-0.0001357531228818943 0.0005139571805354287 0.0003849879793693263 -0.0003802727111478346 -3.912241772832264e-05 -7.978880230796548e-05 
0 0 0 0 0 0 
-0.0001529754223038022 0.0001827207775623172 -0.0003743470637713242 0.000218738737098665 -0.0001668244065764803 0 
-0.0004047392710933991 0.000266412754190583 0.0001252784102880053 0.0001273502741489684 -5.165679657689377e-05 -5.015551418195149e-05 
-0.003216858794740626 0.002184196681554913 0.003134708013911108 -0.002739695751102922 -0.0005401148198912928 0.0005889441770896406 
-0.0007412366057457083 0.0001983402989945239 0.0005985631113766685 -0.0005199238430317108 -0.0001677229692271011 0.0001634374291344869 
-0.0003254188761902916 -0.0003999385130449499 0 0.0001108105201477828 -0.000228881763312138 0.0005845881079166648 
0.0003630526844117447 -0.0004656127319442565 0.0001604680283217266 0.0001093326799545741 -0.0001403333555054135 -0.0003253008387692488 
-0.0004351128205012482 0.0002547496874948473 0 -0.0004686861171388745 0.001075519651902562 -0.0008875459900704 
0 0 0 0 0 0 
0 0 0 0 0 0 
-9.006687196114946e-05 -1.118961897408727e-05 -4.235164736271502e-22 -0.0002184820106789532 0 0.0001610068587838475 
-0.0009864049691352735 -0.0003911236790007972 0.0001715228889691928 1.321645206053618e-05 -0.0003665165005616469 0.0012850825056183 
0 0 0 0 0 0 
0 0 0 0 0 0 
0 0 0.0001604680283217266 -5.542258294877762e-05 -0.0001335443976793107 0 
-4.717378726814231e-05 -8.893127654377031e-05 0 9.526603324491812e-05 0 -1.422633965586461e-05 
0 0 0 0 0 0 
-0.000795729564320503 0 0 -0.0004271994064582254 0 0.000662116199187909 
0 0 0 0 0 0 
-0.005803465019904062 0.002068414378461086 0.009747928817368998 -0.005254993840483706 0.001551100191528134 -0.003476770727758302 
-0.0002274451503915795 0.0001816107113204409 0 6.455067551754759e-05 -8.470329472543003e-22 -0.0002482987036344481 
0 -0.0001856134638420994 0 0.0002563128569144429 0 0 
-6.724621310726164e-05 -0.0001358710859462218 0.0004193946854157266 -3.389844699488217e-05 0 -0.0001499265413366213 
-2.220996993615232e-05 -0.0003458250568542213 0 0.0001907133779586331 -3.997713086733892e-05 0.0003316552278567046 
0 0 0 0 0 0 
-2.220996993615232e-05 -0.0003458250568542213 0 0.0001907133779586331 -3.997713086733892e-05 0.0003316552278567046 
-0.0001008106352862136 -0.0006801418245015898 0.0004193946854157266 -3.389844699488217e-05 -0.0004227801871065488 0.0001610845211357603 
-0.003763159620215154 0.001547283197905916 0.009313974027316775 -0.006942044387664696 0.0002271414739078009 -0.00134813170906295 
-4.717378726814231e-05 -8.893127654377031e-05 0 9.526603324491812e-05 0 -1.422633965586461e-05 
0 0.0001777867599816475 -0.0005451524857007752 0 0 0 
0 0 0 0 0 0 
-0.002537545403619354 0.0004595132920131393 0.002229837988039631 -0.001501016652171115 -0.0005409238172736423 -0.0003723431459124752 
0 0 0 0 0 0 
-0.0007838998391679774 0.0008866214215387927 -0.0001507557628694235 -9.16227464458863e-05 -0.0002104319665283105 8.902370133091045e-05 
-0.0009657429928726968 0.001011401680241704 -3.388131789017201e-21 -0.0008082876677040091 -5.83939627504649e-05 0.0008243728253460347 
-0.00116724022656299 3.787006157988989e-06 0.001126373744325393 -0.000701708464926135 -0.0005135928958832203 0.0006429886225807019 
0.001544812668996812 -0.002506628483881335 0.0001700951619877025 -0.0005108317892626953 -0.00230840142168113 0.00083382480692661 
-0.0009731408875780861 0.000430409070172517 -0.0002261544848561766 -0.0003506594454625564 -0.0002126468409391237 0.0004004328941010937 
-0.008487201955129918 -0.005392777166576887 0.002196395977336821 -0.002590291602811813 -0.005430810131268604 0.01317162426206541 
3.388131789017201e-21 -0.0003376081201340213 0.000339636454282669 0.0002209485416584646 -0.0001482203102193973 0 
-0.0002316991212816389 -0.000132470803993092 6.776263578034403e-21 0.0002781648942583638 0 -0.0001262657808415759 
-0.0009270300703795212 -0.0005697839615526737 -0.0002028226416710436 -0.0002885697636206314 0.001399815681203396 -0.0001410579082051538 
0.00765515897664605 -0.001040479152033953 0.004458287156253561 -0.007853435270322055 -0.007371627276780673 -0.002552055887405331 
-0.0002136710011577194 0.000837634319448301 0 -0.0002221434773943672 0 0 
-0.0002856216970090386 -0.0006631013604595427 0 0 -6.500561653935979e-06 0.0006236759472088737 
0 0 0 0 0 0 
0.0004664877828580653 0 0 -0.0001316215303277356 -0.0001103683667552349 -0.0003640232858917928 
-0.0001414709498268673 9.222860260307135e-05 -1.655713956102343e-05 0.0001219283590992888 0 0 
0 0 0 0 0 0 
-0.0003282440647028028 -0.0003763129247949207 0 -0.000146382300888614 8.470329472543003e-22 0.0009073979243416292 
0.00263063738811489 -0.0004193519208171627 0.0003849879793693263 -0.001527312808251972 -0.0004304944846789066 -0.002099323725324932 
-5.251852646629051e-05 -0.0001720977007458756 0 0.0002667570636066794 0 -1.422633965586461e-05 
-8.951743841972217e-05 0.0005139571805354287 0 -0.0002516786086682182 0 -7.978880230796548e-05 
0 -0.0001856134638420994 0 0.0002563128569144429 0 0 
0 0.0001895424369482733 -1.694065894508601e-21 -1.694065894508601e-21 0 -9.086287845399913e-05 
0 0 0 0 0 0 
0 0 0 0 0 0 
0 0 0 0 0 0 
-0.0003369017308168906 -0.0004652442013386911 0 -0.0001466783778338064 8.470329472543003e-22 0.0008931715846857644 
0 0 0 0 0 0 
0 0 0 0 0 0 
0 0 0 0 0 0 
0 -6.676277523106999e-05 0 0.0001108105201477828 0 0 
-0.0004543857159140747 0.0005114178905158345 0.0003849879793693263 -0.0002152800295905688 -4.591137555442546e-05 -0.0004256118671331519 
0 0 0 0 0 0 
0 0 0 0 0 0 
-1.913791316157533e-05 -0.0001256184818029985 0 0.000218738737098665 0 0 
-4.915147048711151e-05 0.0003515531265242529 3.388131789017201e-21 0.000229843377750426 -5.189340109652892e-05 0 
-0.0008028781143392369 0.0006161379781428406 -4.898324339767872e-05 -6.04879551454565e-05 -0.0001498073244667026 0.000328534869078889 
0 0 0 0 0 0 
-3.736080013031969e-05 -0.0007583038135971942 0 -1.355252715606881e-20 -0.00025081986182279 0.0006989671395571895 
0 0 0 0 0 0 
0 -6.011875291660873e-05 0.0001873625614904744 -3.864587821847745e-21 -0.0001668244065764803 0 
0 0 0 0 0 0 
0 0 0 0 0 0 
0 0 0 0 0 0 
0 0 0 0 0 0 
0 0 0 0 0 0 
-4.717378726814231e-05 -8.893127654377031e-05 0 9.526603324491812e-05 0 -1.422633965586461e-05 
0 0 0 0 0 0 
0 0 0 0 0 0 
0 0 0 0 0 0 
-0.0004626142157044307 -5.929230630780102e-21 0.0006253826217011159 -0.0001381671124250595 -3.653428716127705e-05 0 
0 -0.0001856134638420994 0 0.0002563128569144429 0 0 
-1.913791316157532e-05 -0.0001334451856634504 -0.0005451524857007752 0.0004750515940131078 0 0 
0 0 0 0 0 0 
-8.951743841972217e-05 0.0004545490919351871 0 -0.0001359964216202969 0 -7.978880230796548e-05 
0 0 0 0 0 0 
0 0 0 0 0 0 
3.388131789017201e-21 8.470329472543003e-22 0.000339636454282669 -0.0001647354466595551 -0.0001482203102193974 0 
0.000924932712778418 -0.0002643728319372286 0 -3.066402425035963e-05 -0.0001540192688740348 -0.0006807856258257812 
0 0 0 0 0 0 
-4.717378726814231e-05 -8.893127654377031e-05 0 9.526603324491812e-05 0 -1.422633965586461e-05 
0 0 0 0 0 0 
0 0 0 0 0 0 
-1.913791316157533e-05 -0.0001256184818029985 0.0001252784102880053 0.0001273502741489684 -5.165679657689377e-05 0 
-2.220996993615232e-05 -0.0001602115930121221 0 -6.559947895580967e-05 -3.997713086733894e-05 0.0003316552278567046 
0 0 0 0 0 0 
-0.001193550613435851 0.0006178484342873833 -1.01643953670516e-20 -0.000573009990896254 0 0.0007082606690309747 
-0.001331711234674356 0.001371505065841514 0.0008629077324078104 -0.001687583960842456 -0.001094244680623064 0.0009694616337020784 
0.001446998117293422 -0.005917294026557172 0.002135195942120685 -0.004574869757152523 0.011558630295621 -0.0148819943813602 
-0.0006253609182172072 -2.438942938483509e-05 -0.0001508408946557509 -5.895233661037442e-05 -0.0001764192000469575 0.000700137359769442 
0.0009375569948762544 -0.03673191026958847 0.002626213485265739 -0.01657747114924319 0.0002512096460889638 0.03260582517975912 
0 0.0005110276093034164 0 -0.0001382447805525037 -9.678337014211268e-05 4.235164736271502e-21 
-1.913791316157533e-05 -0.0001256184818029985 0 0.000218738737098665 0 0 
-0.0001280473514892633 0.0006475018999950903 -0.0001508408946557509 -0.0001882102831410874 -0.0001635991613189295 -3.032609268534489e-05 
0.0002173501471412349 -0.001494449112150832 0.0004193946854157267 0.0001978405652245283 -0.0005966751444106593 0.0009572699138352336 
-1.0635349333057e-05 -4.265931403296786e-05 0 7.208834086566271e-05 0 0 
-3.075551709905831e-05 0.0004542032502061023 0 -0.0001658474859548803 0 -0.0001332849923907616 
-4.717378726814231e-05 0.0002002882908265398 -1.01643953670516e-20 -7.342871992290813e-05 0 -0.0001483905894531144 
0 -0.0001856134638420994 0 0.0002563128569144429 0 0 
-8.951743841972217e-05 0.0004471944053043585 0 -0.0001408680885204355 0 -7.978880230796548e-05 
0.0006160212468460206 -0.0003762251856572528 0 -0.00012540867854882 0 -0.0003898252329209272 
-3.075551709905831e-05 0.0004542032502061023 0 -0.0001658474859548803 0 -0.0001332849923907616 
-0.0002907256603083831 -0.0003663009245683039 0 -0.0006543830469760713 -0.0002402622737283619 0.0006199131930050606 
-0.0002378871354598052 0.0003266275355033968 0.0007435599963973456 -0.0003757726373398464 -1.694065894508601e-21 -0.0001936492010290778 
-1.913791316157533e-05 -0.0001256184818029985 0 0.000218738737098665 0 0 
0 0 0 0 0 0 
0 0 0 0 0 0 
0 0 0 0 0 0 
0 0 0 0 0 0 
0 0 0 0 0 0 
0 0 0 0 0 0 
-4.477301216873551e-05 0.000310612052487555 0 -0.0001559532973112095 0 0 
0 0 0 0 0 0 
-0.0001738899846804395 6.588256181471614e-05 0 0 0 -0.0001120394411857113 
-0.001788156014554 -0.0004886995627864177 0 -0.000238467751773548 -1.282003872802818e-05 0.001675847270988427 
-7.947010191841412e-05 3.175508264211275e-05 0 0.0001188329942805691 0 -0.0001091599454815801 
0.001227079096222635 -0.0007844474635128496 0 -0.001131963035129738 -6.500561653935986e-06 -0.0001502155272247182 
-0.0005739851563952527 0.0001777867599816475 -0.0007703063341679866 0 -0.0001311791605484279 0.0005652653657591922 
-0.0008459220201978774 -0.001896583906406134 0.0001791684259609421 -0.00173350924445571 -0.0003096705580418755 0.003104225580585733 
-0.001120260548951016 -0.0007347975170595796 0.004217970260831052 -0.001432182030683399 -0.0006039798624557909 -0.0007104641006254343 
-0.0007715971471733227 -0.002632189669774037 0.008555633591299572 -0.003895323768515478 -0.006295502971788608 0.0007015360089523016 
0 0 0 0 0 0 
-0.001503833542272953 -0.001170551268643869 0 -0.0003546015604829613 -0.0003392616129314894 0.00207182790456441 
-0.0007572134431664482 0.0008243754396120374 -0.0005451524857007752 -0.0008276919670159087 -5.189340109652892e-05 0.000662116199187909 
